svm_type c_svc
kernel_type rbf
gamma 0.09090909090909091
nr_class 2
total_sv 18603
rho 0.23516819499791022
label 0 1
nr_sv 9089 9514
SV
0.0018119198754593246 1:0.314194 2:0.118821 3:0.741162 4:5.48378 5:0.67 6:9.74 7:0.0141185 8:0.67 9:3.0 10:0.23 11:-0.0945784 
1.0 1:0.321613 2:0.104916 3:1.75316 4:5.73053 5:0.44 6:9.97 7:0.0110073 8:0.07 9:3.0 10:0.207667 11:-0.00977823 
0.20402551129677438 1:0.233226 2:0.0597989 3:0.175382 4:2.8047 5:0.25 6:7.23 7:0.00357591 9:5.0 10:0.117333 
1.0 1:0.225161 2:0.0560875 3:-0.164301 4:2.17927 5:0.2 6:6.98 7:0.00314581 9:5.0 10:0.119 
1.0 1:0.21871 2:0.0551206 3:-0.221975 4:2.00069 5:0.18 6:6.78 7:0.00303828 9:5.0 10:0.119667 
0.37552799686078203 1:0.207097 2:0.0535533 3:-0.21375 4:1.69997 5:0.16 6:6.42 7:0.00286796 9:5.0 10:0.120333 
1.0 1:1.14129 2:0.457054 3:0.496153 4:2.09865 5:1.53 6:35.38 7:0.208898 9:2.0 10:0.471 
1.0 1:1.09161 2:0.435952 3:0.499804 4:2.11011 5:1.5 6:33.84 7:0.190054 9:2.0 10:0.462333 
1.0 1:1.0429 2:0.411268 3:0.464757 4:1.99575 5:1.35 6:32.33 7:0.169141 9:2.0 10:0.457667 
1.0 1:0.999032 2:0.392193 3:0.475704 4:1.98799 5:1.27 6:30.97 7:0.153816 9:2.0 10:0.450667 
1.0 1:0.957742 2:0.374199 3:0.497203 4:2.00175 5:1.24 6:29.69 7:0.140025 9:2.0 10:0.442 
1.0 1:0.917742 2:0.353494 3:0.495615 4:1.93287 5:1.1 6:28.45 7:0.124958 9:2.0 10:0.446667 
1.0 1:0.881935 2:0.337959 3:0.544028 4:1.99448 5:1.04 6:27.34 7:0.114216 9:2.0 10:0.439 
1.0 1:0.848387 2:0.32276 3:0.607753 4:2.10234 5:0.98 6:26.3 7:0.104174 9:1.0 10:0.441 
1.0 1:0.814194 2:0.310631 3:0.652074 4:2.25128 5:1.02 6:25.24 7:0.0964918 9:2.0 10:0.362333 
1.0 1:0.78129 2:0.296948 3:0.69812 4:2.41524 5:1.0 6:24.22 7:0.0881783 9:1.0 10:0.363 
1.0 1:0.74871 2:0.280627 3:0.716825 4:2.53231 5:0.99 6:23.21 7:0.0787516 9:2.0 10:0.353667 
1.0 1:0.716452 2:0.26126 3:0.678036 4:2.48853 5:0.96 6:22.21 7:0.068257 9:1.0 10:0.345 
1.0 1:0.659355 2:0.2278 3:0.570985 4:2.17016 5:0.76 6:20.44 7:0.0518929 9:2.0 10:0.342 
1.0 1:0.634839 2:0.214878 3:0.576135 4:2.16371 5:0.73 6:19.68 7:0.0461725 9:2.0 10:0.343 
1.0 1:0.61129 2:0.200595 3:0.548033 4:2.03019 5:0.64 6:18.95 7:0.0402383 9:2.0 10:0.346 
0.18552812185078332 1:0.590323 2:0.190149 3:0.575374 4:2.05099 5:0.62 6:18.3 7:0.0361566 9:2.0 10:0.337 
1.0 1:0.55129 2:0.170641 3:0.623698 4:2.09288 5:0.56 6:17.09 7:0.0291183 9:3.0 10:0.31 
1.0 1:0.533226 2:0.161913 3:0.658 4:2.16194 5:0.51 6:16.53 7:0.0262159 9:3.0 10:0.311667 
1.0 1:0.516774 2:0.154389 3:0.726093 4:2.33335 5:0.49 6:16.02 7:0.0238359 9:3.0 10:0.312333 
1.0 1:0.501935 2:0.145107 3:0.811631 4:2.55087 5:0.47 6:15.56 7:0.0210561 8:0.03 9:3.0 10:0.343 11:-0.00494461 
1.0 1:0.422581 2:0.086947 3:0.624364 4:1.98166 5:0.28 6:13.1 7:0.00755978 8:0.02 9:3.0 10:0.31 11:-0.00281041 
1.0 1:0.413548 2:0.0823225 3:0.666838 4:2.02853 5:0.27 6:12.82 7:0.00677699 8:0.02 9:3.0 10:0.300333 11:-0.00309091 
1.0 1:0.958065 2:0.346626 3:0.684566 4:2.3001 5:1.17 6:29.7 7:0.120149 9:2.0 10:0.502333 
1.0 1:0.92 2:0.323017 3:0.676225 4:2.25195 5:1.05 6:28.52 7:0.10434 9:2.0 10:0.496667 
1.0 1:0.885806 2:0.30419 3:0.709427 4:2.33285 5:0.98 6:27.46 7:0.0925318 9:2.0 10:0.489333 
1.0 1:0.854194 2:0.286493 3:0.759957 4:2.47626 5:0.93 6:26.48 7:0.0820785 9:3.0 10:0.491 
1.0 1:0.823871 2:0.268312 3:0.801891 4:2.62563 5:0.89 6:25.54 7:0.0719912 9:3.0 10:0.482667 
1.0 1:0.794839 2:0.249705 3:0.828952 4:2.7647 5:0.87 6:24.64 7:0.0623525 9:3.0 10:0.473667 
1.0 1:0.766774 2:0.228581 3:0.800014 4:2.73189 5:0.83 6:23.77 7:0.0522492 9:3.0 10:0.475 
1.0 1:0.739677 2:0.205791 3:0.66313 4:2.26694 5:0.67 6:22.93 7:0.0423499 9:3.0 10:0.470667 
1.0 1:0.715806 2:0.195683 3:0.63745 4:2.30298 5:0.71 6:22.19 7:0.0382918 9:3.0 10:0.401667 
1.0 1:0.692903 2:0.184394 3:0.586854 4:2.23483 5:0.67 6:21.48 7:0.0340013 9:3.0 10:0.403 
1.0 1:0.670968 2:0.173231 3:0.504653 4:2.05427 5:0.6 6:20.8 7:0.030009 9:3.0 10:0.395667 
1.0 1:0.651613 2:0.165108 3:0.488296 4:2.02283 5:0.57 6:20.2 7:0.0272606 9:3.0 10:0.396667 
1.0 1:0.633226 2:0.156533 3:0.463221 4:1.93255 5:0.5 6:19.63 7:0.0245026 9:3.0 10:0.399 
1.0 1:0.616452 2:0.15145 3:0.487181 4:2.00325 5:0.5 6:19.11 7:0.022937 9:3.0 10:0.379667 
1.0 1:0.600323 2:0.145659 3:0.512906 4:2.06689 5:0.47 6:18.61 7:0.0212166 9:3.0 10:0.380667 
1.0 1:0.585161 2:0.139925 3:0.554505 4:2.16657 5:0.44 6:18.14 7:0.0195791 9:3.0 10:0.381667 
1.0 1:0.570645 2:0.134782 3:0.605274 4:2.31891 5:0.44 6:17.69 7:0.0181662 9:3.0 10:0.372 
1.0 1:0.556129 2:0.12891 3:0.634363 4:2.45911 5:0.43 6:17.24 7:0.0166178 9:3.0 10:0.362667 
1.0 1:0.542258 2:0.122548 3:0.662403 4:2.61212 5:0.42 6:16.81 7:0.0150181 9:3.0 10:0.363 
1.0 1:0.52871 2:0.114942 3:0.656957 4:2.69577 5:0.4 6:16.39 7:0.0132116 9:3.0 10:0.363667 
1.0 1:0.515806 2:0.106795 3:0.618864 4:2.69441 5:0.4 6:15.99 7:0.0114052 9:3.0 10:0.363667 
1.0 1:0.470968 2:0.0858042 3:0.237066 4:1.70354 5:0.29 6:14.6 7:0.00736237 9:4.0 10:0.319 
1.0 1:0.461613 2:0.0836699 3:0.235481 4:1.67073 5:0.28 6:14.31 7:0.00700065 9:4.0 10:0.319333 
0.7472396988054314 1:0.452581 2:0.0810748 3:0.23302 4:1.59624 5:0.25 6:14.03 7:0.00657312 9:4.0 10:0.320333 
1.0 1:0.444194 2:0.0798237 3:0.2702 4:1.63456 5:0.24 6:13.77 7:0.00637183 9:4.0 10:0.311 
1.0 1:0.436452 2:0.0788479 3:0.340215 4:1.72125 5:0.23 6:13.53 7:0.00621699 9:4.0 10:0.311333 
0.9636742785719036 1:0.429032 2:0.0776468 3:0.424745 4:1.83947 5:0.23 6:13.3 7:0.00602903 9:4.0 10:0.311333 
0.5084236313170489 1:0.421613 2:0.075679 3:0.507165 4:1.97292 5:0.23 6:13.07 7:0.00572731 9:4.0 10:0.311333 
0.9670066761177816 1:0.414194 2:0.0728823 3:0.58011 4:2.10766 5:0.22 6:12.84 7:0.00531183 9:4.0 10:0.311667 
1.0 1:0.392258 2:0.0640682 3:0.736029 4:2.67775 5:0.22 6:12.16 7:0.00410473 9:5.0 10:0.292333 
1.0 1:0.385806 2:0.0596531 3:0.787321 4:2.8982 5:0.21 6:11.96 7:0.00355849 8:0.02 9:5.0 10:0.312667 11:-0.00142642 
0.7526203276826678 1:0.371613 2:0.0513872 3:0.573719 4:2.76005 5:0.21 6:11.52 7:0.00264065 8:0.02 9:5.0 10:0.283 11:-0.00280143 
0.0022806774036700545 1:0.364839 2:0.0461065 3:0.202495 4:1.65046 5:0.14 6:11.31 7:0.00212581 9:5.0 10:0.285333 
0.6392226306575091 1:0.289032 2:0.00746317 3:0.153187 4:1.86366 5:0.02 6:8.96 7:5.56989E-5 8:0.02 9:6.0 10:0.27 11:-3.82491E-4 
1.0 1:0.288387 2:0.00734701 3:0.25339 4:1.93458 5:0.02 6:8.94 7:5.39785E-5 8:0.02 9:6.0 10:0.27 11:-3.36161E-4 
0.6225398823116961 1:0.281613 2:0.00898027 3:0.241582 4:2.21759 5:0.03 6:8.73 7:8.06452E-5 8:0.02 9:6.0 10:0.260667 11:-4.0889E-4 
1.0 1:0.28129 2:0.00921663 3:0.26265 4:2.11527 5:0.03 6:8.72 7:8.49462E-5 8:0.02 9:6.0 10:0.26 11:-3.77088E-4 
1.0 1:0.280323 2:0.00874981 3:0.241598 4:2.01216 5:0.03 6:8.69 7:7.65591E-5 8:0.02 9:6.0 10:0.260333 11:-3.35972E-4 
1.0 1:0.724839 2:0.210299 3:0.48121 4:2.08974 5:0.78 6:22.47 7:0.0442258 8:0.23 9:3.0 10:0.486333 11:-0.0733233 
1.0 1:0.706452 2:0.209452 3:0.584766 4:2.2841 5:0.78 6:21.9 7:0.0438703 8:0.23 9:3.0 10:0.408 11:-0.120243 
1.0 1:0.689677 2:0.209292 3:0.700903 4:2.49594 5:0.78 6:21.38 7:0.0438032 8:0.45 9:3.0 10:0.401667 11:-0.221755 
1.0 1:0.666774 2:0.195642 3:0.704979 4:2.55498 5:0.77 6:20.67 7:0.0382759 8:0.23 9:3.0 10:0.402 11:-0.0964454 
1.0 1:0.644194 2:0.178881 3:0.612979 4:2.27324 5:0.65 6:19.97 7:0.0319985 8:0.23 9:3.0 10:0.406 11:-0.0832064 
1.0 1:0.624839 2:0.169054 3:0.625673 4:2.32494 5:0.62 6:19.37 7:0.0285791 8:0.45 9:3.0 10:0.388333 11:-0.169418 
1.0 1:0.566129 2:0.14331 3:0.710971 4:2.44838 5:0.49 6:17.55 7:0.0205378 8:0.03 9:3.0 10:0.381333 11:-0.00781016 
1.0 1:0.55129 2:0.135468 3:0.768755 4:2.64945 5:0.48 6:17.09 7:0.0183516 8:0.03 9:3.0 10:0.371667 11:-0.00777402 
0.3954489547087565 1:0.536452 2:0.126558 3:0.786404 4:2.78951 5:0.45 6:16.63 7:0.016017 8:0.45 9:3.0 10:0.377667 11:-0.117593 
1.0 1:0.537097 2:0.12573 3:0.811477 4:2.80428 5:0.43 6:16.65 7:0.015808 8:0.03 9:3.0 10:0.362667 11:-0.00739025 
1.0 1:0.523226 2:0.116887 3:0.825635 4:2.9694 5:0.42 6:16.22 7:0.0136626 8:0.03 9:3.0 10:0.363 11:-0.00644636 
1.0 1:0.509677 2:0.106411 3:0.755008 4:2.88086 5:0.4 6:15.8 7:0.0113232 8:0.03 9:3.0 10:0.363667 11:-0.00563306 
1.0 1:0.476129 2:0.0833738 3:0.434965 4:1.88363 5:0.29 6:14.76 7:0.00695118 8:0.03 9:4.0 10:0.338333 11:-0.00652589 
1.0 1:0.466774 2:0.0793888 3:0.402858 4:1.76322 5:0.26 6:14.47 7:0.00630258 8:0.03 9:5.0 10:0.339333 11:-0.00608253 
1.0 1:0.458065 2:0.0767863 3:0.404246 4:1.75928 5:0.26 6:14.2 7:0.00589613 8:0.03 9:5.0 10:0.329667 11:-0.0061452 
1.0 1:0.449355 2:0.0742489 3:0.379972 4:1.72436 5:0.25 6:13.93 7:0.0055129 8:0.03 9:5.0 10:0.320333 11:-0.00639107 
1.0 1:0.44129 2:0.0720066 3:0.388425 4:1.73023 5:0.22 6:13.68 7:0.00518495 8:0.03 9:5.0 10:0.321667 11:-0.00570295 
1.0 1:0.434516 2:0.0713133 3:0.473326 4:1.87948 5:0.22 6:13.47 7:0.00508559 9:5.0 10:0.321333 
1.0 1:0.427419 2:0.0693286 3:0.541669 4:2.0138 5:0.21 6:13.25 7:0.00480645 8:0.03 9:5.0 10:0.323 11:-0.00443763 
1.0 1:0.421935 2:0.0693022 3:0.658779 4:2.20773 5:0.21 6:13.08 7:0.0048028 9:5.0 10:0.321667 
1.0 1:0.415161 2:0.0665768 3:0.750115 4:2.44554 5:0.21 6:12.87 7:0.00443247 9:5.0 10:0.321667 
1.0 1:0.408065 2:0.0633729 3:0.804101 4:2.67348 5:0.21 6:12.65 7:0.00401613 9:5.0 10:0.312 
1.0 1:0.40129 2:0.0599301 3:0.8606 4:2.94907 5:0.2 6:12.44 7:0.00359161 9:5.0 10:0.312333 
1.0 1:0.374516 2:0.0417803 3:0.132713 4:1.67615 5:0.13 6:11.61 7:0.00174559 9:5.0 10:0.295333 
1.0 1:0.366129 2:0.0407985 3:0.230368 4:1.74561 5:0.13 6:11.35 7:0.00166452 9:5.0 10:0.295333 
1.0 1:0.361613 2:0.0400913 3:0.223769 4:1.75368 5:0.14 6:11.21 7:0.00160731 9:5.0 10:0.285333 
1.0 1:0.348387 2:0.0389099 3:0.158123 4:1.82633 5:0.13 6:10.8 7:0.00151398 8:0.01 9:5.0 10:0.276333 11:-0.00113339 
0.008969146841089182 1:0.256452 2:0.00486373 3:-0.60678 4:1.36818 5:0.01 6:7.95 7:2.36559E-5 8:0.01 9:12.0 10:0.241333 11:-1.16906E-4 
0.5837903868287284 1:0.232581 2:0.00681554 3:2.21318 4:5.89815 5:0.02 6:7.21 7:4.64516E-5 8:0.02 9:14.0 10:0.222333 11:-1.49661E-4 
1.0 1:0.231935 2:0.00601074 3:2.72772 4:8.44048 5:0.02 6:7.19 7:3.6129E-5 8:0.02 9:18.0 10:0.222333 11:-1.81481E-4 
1.0 1:0.773871 2:0.283086 3:1.09934 4:3.13391 5:0.96 6:23.99 7:0.0801378 9:3.0 10:0.470667 
1.0 1:0.740968 2:0.256286 3:1.10432 4:3.23163 5:0.97 6:22.97 7:0.0656824 9:3.0 10:0.412333 
1.0 1:0.709032 2:0.227645 3:0.98858 4:2.84715 5:0.82 6:21.98 7:0.0518224 9:3.0 10:0.398 
1.0 1:0.682581 2:0.20831 3:0.97963 4:2.8764 5:0.74 6:21.16 7:0.0433931 9:3.0 10:0.400667 
1.0 1:0.65871 2:0.191098 3:0.98499 4:2.97287 5:0.71 6:20.42 7:0.0365183 9:3.0 10:0.401667 
1.0 1:0.635484 2:0.172218 3:0.893592 4:2.70983 5:0.61 6:19.7 7:0.0296589 9:3.0 10:0.395333 
1.0 1:0.615484 2:0.159182 3:0.876715 4:2.74157 5:0.59 6:19.08 7:0.0253389 9:3.0 10:0.386333 
1.0 1:0.596452 2:0.145087 3:0.796135 4:2.52056 5:0.49 6:18.49 7:0.0210503 9:3.0 10:0.389667 
1.0 1:0.580645 2:0.136209 3:0.830722 4:2.68292 5:0.46 6:18.0 7:0.0185529 9:3.0 10:0.390667 
1.0 1:0.565484 2:0.127667 3:0.855032 4:2.87022 5:0.44 6:17.53 7:0.0162989 9:3.0 10:0.381667 
1.0 1:0.55129 2:0.119157 3:0.880108 4:3.10066 5:0.42 6:17.09 7:0.0141983 9:3.0 10:0.382333 
1.0 1:0.537742 2:0.109931 3:0.874483 4:3.29472 5:0.41 6:16.67 7:0.0120847 9:3.0 10:0.382667 
1.0 1:0.524516 2:0.0989558 3:0.749758 4:3.12995 5:0.38 6:16.26 7:0.00979226 9:3.0 10:0.383667 
1.0 1:0.511935 2:0.0882957 3:0.476873 4:2.40889 5:0.31 6:15.87 7:0.00779613 9:3.0 10:0.376333 
1.0 1:0.463548 2:0.0657038 3:0.350376 4:1.3859 5:0.17 6:14.37 7:0.00431699 8:0.01 9:3.0 10:0.371333 11:-0.00113751 
1.0 1:0.458065 2:0.064468 3:0.467181 4:1.4977 5:0.17 6:14.2 7:0.00415613 9:4.0 10:0.371333 
1.0 1:0.452581 2:0.0627146 3:0.586018 4:1.64063 5:0.17 6:14.03 7:0.00393312 9:4.0 10:0.371333 
1.0 1:0.447097 2:0.0603983 3:0.705419 4:1.81147 5:0.16 6:13.86 7:0.00364796 9:5.0 10:0.371667 
1.0 1:0.441935 2:0.0581045 3:0.843562 4:2.06388 5:0.16 6:13.7 7:0.00337613 8:0.01 9:6.0 10:0.371667 11:-7.17023E-4 
1.0 1:0.436774 2:0.05522 3:0.98653 4:2.37254 5:0.15 6:13.54 7:0.00304925 9:7.0 10:0.372 
1.0 1:0.431935 2:0.0523717 3:1.15539 4:2.81542 5:0.15 6:13.39 7:0.0027428 8:0.01 9:8.0 10:0.372 11:-5.55141E-4 
1.0 1:0.426129 2:0.0499118 3:1.24586 4:3.30981 5:0.18 6:13.21 7:0.00249118 8:0.01 9:9.0 10:0.342 11:-0.00138097 
0.8038018618670062 1:0.42129 2:0.0455882 3:1.41502 4:3.96911 5:0.17 6:13.06 7:0.00207828 8:0.03 9:10.0 10:0.372333 11:-0.00124053 
1.0 1:0.415806 2:0.0421722 3:1.50193 4:4.74176 5:0.17 6:12.89 7:0.00177849 9:10.0 10:0.342333 
1.0 1:0.410323 2:0.0376372 3:1.50362 4:5.4807 5:0.16 6:12.72 7:0.00141656 8:0.03 9:10.0 10:0.342667 11:-0.00327007 
1.0 1:0.380968 2:0.0262494 3:-0.342915 4:1.82119 5:0.08 6:11.81 7:6.89032E-4 8:0.03 9:10.0 10:0.326 11:-0.00219494 
1.0 1:0.378387 2:0.0262166 3:-0.284138 4:1.69256 5:0.08 6:11.73 7:6.87312E-4 8:0.03 9:10.0 10:0.326 11:-0.00197297 
1.0 1:0.375806 2:0.0259196 3:-0.239639 4:1.54978 5:0.07 6:11.65 7:6.71828E-4 8:0.03 9:10.0 10:0.326333 11:-0.00177488 
1.0 1:0.373548 2:0.0258906 3:-0.141464 4:1.48057 5:0.07 6:11.58 7:6.70323E-4 8:0.03 9:10.0 10:0.326333 11:-0.00160506 
0.2317073201389381 1:0.341613 2:0.0077875 3:0.578755 4:5.5195 5:0.04 6:10.59 7:6.06452E-5 8:0.02 9:19.0 10:0.318 11:-5.55509E-4 
1.0 1:0.335161 2:0.00769024 3:-1.17222 4:2.75012 5:0.02 6:10.39 7:5.91398E-5 8:0.02 9:17.0 10:0.308667 11:-6.14423E-4 
1.0 1:0.329032 2:0.00907555 3:0.190468 4:1.28126 5:0.02 6:10.2 7:8.23656E-5 8:0.02 9:7.0 10:0.308667 11:-2.82946E-4 
0.20179149065025553 1:0.325806 2:0.00807225 3:0.894091 4:2.16565 5:0.02 6:10.1 7:6.51613E-5 9:12.0 10:0.308667 
0.02250167126310184 1:0.305484 2:0.00925156 3:0.241518 4:2.13855 5:0.03 6:9.47 7:8.55914E-5 8:0.02 9:6.0 10:0.289667 11:-1.42635E-4 
1.0 1:0.304839 2:0.00961629 3:0.275018 4:2.10905 5:0.03 6:9.45 7:9.24731E-5 8:0.01 9:6.0 10:0.279667 11:-3.15526E-4 
1.0 1:0.304194 2:0.00992445 3:0.330698 4:2.08987 5:0.03 6:9.43 7:9.84946E-5 8:0.02 9:6.0 10:0.279667 11:-6.53948E-4 
0.27620040763997555 1:0.302903 2:0.00972747 3:0.497605 4:2.33613 5:0.03 6:9.39 7:9.46237E-5 8:0.02 9:6.0 10:0.279667 11:-4.87409E-4 
1.0 1:0.302258 2:0.00990275 3:0.583186 4:2.39342 5:0.03 6:9.37 7:9.80645E-5 8:0.01 9:6.0 10:0.279667 11:-2.67349E-4 
1.0 1:0.295806 2:0.00564163 3:0.245063 4:2.0893 5:0.02 6:9.17 7:3.1828E-5 8:0.01 9:6.0 10:0.279667 11:-9.68081E-5 
0.18515137340778007 1:0.290645 2:0.00249731 3:3.54527 4:13.569 5:0.01 6:9.01 7:6.23656E-6 8:0.01 9:10.0 10:0.280333 11:-1.26923E-5 
0.8358015282298269 1:0.290968 2:0.00300537 3:2.72772 4:8.44048 5:0.01 6:9.02 7:9.03226E-6 8:0.01 9:22.0 10:0.280333 11:-4.58333E-5 
6.84539349474254E-4 1:0.291613 2:0.00373878 3:1.84182 4:4.39231 5:0.01 6:9.04 7:1.39785E-5 8:0.01 9:7.0 10:0.280333 11:-4.282E-5 
0.05421344607171685 1:0.291613 2:0.00373878 3:1.84182 4:4.39231 5:0.01 6:9.04 7:1.39785E-5 8:0.01 9:19.0 10:0.29 11:2.82493E-4 
0.5422825152457929 1:0.290968 2:0.00300537 3:2.72772 4:8.44048 5:0.01 6:9.02 7:9.03226E-6 8:0.01 9:21.0 10:0.280333 11:-2.1734E-5 
0.6277384417093452 1:0.29129 2:0.00340777 3:2.21318 4:5.89815 5:0.01 6:9.03 7:1.16129E-5 8:0.01 9:21.0 10:0.290333 11:2.84684E-4 
0.14947003207476553 1:0.292581 2:0.00444803 3:1.10581 4:2.22283 5:0.01 6:9.07 7:1.97849E-5 8:0.01 9:14.0 10:0.290333 11:1.66463E-4 
1.0 1:0.293226 2:0.00475191 3:0.759072 4:1.57619 5:0.01 6:9.09 7:2.25806E-5 8:0.01 9:9.0 10:0.290333 11:1.56168E-4 
0.061380113128520236 1:0.294839 2:0.00508001 3:0.0645497 4:1.00417 5:0.01 6:9.14 7:2.58065E-5 8:0.01 9:13.0 10:0.290333 11:8.93345E-5 
0.4339894637628967 1:0.29871 2:0.00340777 3:-2.21318 4:5.89815 5:0.01 6:9.26 7:1.16129E-5 8:0.01 9:12.0 10:0.29 11:5.2619E-5 
0.9642486828050248 1:0.297419 2:0.00444803 3:-1.10581 4:2.22283 5:0.01 6:9.22 7:1.97849E-5 8:0.01 9:15.0 10:0.29 11:1.25013E-4 
0.9111009766649045 1:0.294839 2:0.00569852 3:0.612781 4:2.33163 5:0.02 6:9.14 7:3.24731E-5 8:0.01 9:6.0 10:0.280333 11:-1.34694E-4 
0.2980752990474447 1:0.295806 2:0.0050161 3:-0.32686 4:1.10684 5:0.01 6:9.17 7:2.51613E-5 8:0.01 9:7.0 10:0.28 11:-2.38263E-4 
0.04640808261662602 1:0.306129 2:0.00615219 3:-1.31191 4:3.63914 5:0.02 6:9.49 7:3.78495E-5 8:0.02 9:7.0 10:0.289667 11:-2.71743E-4 
1.0 1:0.306452 2:0.00608188 3:-1.47643 4:4.08146 5:0.02 6:9.5 7:3.69892E-5 8:0.01 9:7.0 10:0.299667 11:1.60501E-4 
0.06026660856179781 1:0.306452 2:0.00608188 3:-1.47643 4:4.08146 5:0.02 6:9.5 7:3.69892E-5 8:0.02 9:6.0 10:0.299667 11:2.89533E-4 
0.17533727971141294 1:0.291613 2:0.00373878 3:1.84182 4:4.39231 5:0.01 6:9.04 7:1.39785E-5 9:20.0 10:0.28 
0.22334278376671615 1:0.289032 2:0.00300537 3:-2.72772 4:8.44048 5:0.01 6:8.96 7:9.03226E-6 8:0.01 9:24.0 10:0.280333 11:4.5E-5 
0.16692175568625153 1:0.288387 2:0.00373878 3:-1.84182 4:4.39231 5:0.01 6:8.94 7:1.39785E-5 8:0.01 9:17.0 10:0.270333 11:-2.49574E-4 
1.0 1:0.288065 2:0.0040161 3:-1.55134 4:3.40667 5:0.01 6:8.93 7:1.6129E-5 8:0.01 9:16.0 10:0.270333 11:-2.55695E-4 
0.3830886970916608 1:0.283548 2:0.00486373 3:0.60678 4:1.36818 5:0.01 6:8.79 7:2.36559E-5 8:0.01 9:9.0 10:0.270333 11:-5.49783E-5 
0.0010258478894161318 1:0.282903 2:0.00461414 3:0.92387 4:1.85354 5:0.01 6:8.77 7:2.12903E-5 8:0.01 9:13.0 10:0.270333 11:-3.91816E-5 
0.5752943603451636 1:0.28 2:0.00258199 3:-9.83758E-14 4:15.5 5:0.02 6:8.68 7:6.66667E-6 8:0.01 9:27.0 10:0.260667 11:-3.32832E-4 
0.3352155882717475 1:0.279677 2:0.00314523 3:-0.77513 4:10.1706 5:0.02 6:8.67 7:9.89247E-6 8:0.01 9:26.0 10:0.260667 11:-3.24499E-4 
0.11628198980086261 1:0.279677 2:0.00314523 3:-0.77513 4:10.1706 5:0.02 6:8.67 7:9.89247E-6 8:0.01 9:25.0 10:0.270667 11:3.0E-5 
0.24116434855152782 1:0.28 2:0.00258199 3:-9.83758E-14 4:15.5 5:0.02 6:8.68 7:6.66667E-6 8:0.01 9:22.0 10:0.280667 11:3.13784E-4 
1.0 1:0.280968 2:0.00396219 3:0.874088 4:5.7462 5:0.02 6:8.71 7:1.56989E-5 8:0.02 9:17.0 10:0.280667 11:4.58997E-4 
1.0 1:0.28129 2:0.00427546 3:0.785011 4:4.6481 5:0.02 6:8.72 7:1.82796E-5 8:0.02 9:16.0 10:0.280667 11:4.91049E-4 
0.30340439304512773 1:0.28129 2:0.00427546 3:0.785011 4:4.6481 5:0.02 6:8.72 7:1.82796E-5 8:0.02 9:15.0 10:0.270667 11:-1.87619E-4 
0.18839316111676904 1:0.280968 2:0.00472923 3:0.32802 4:4.28569 5:0.02 6:8.71 7:2.23656E-5 8:0.02 9:13.0 10:0.271 11:5.64805E-5 
0.25679979776097717 1:0.280323 2:0.00706346 3:-2.35081 4:12.462 5:0.04 6:8.69 7:4.98925E-5 8:0.03 9:12.0 10:0.270333 11:2.02774E-4 
1.0 1:0.279677 2:0.00657463 3:-2.83099 4:15.0897 5:0.04 6:8.67 7:4.32258E-5 8:0.03 9:12.0 10:0.270333 11:1.44623E-4 
0.42880671620043176 1:0.279355 2:0.00629046 3:-3.22546 4:17.0681 5:0.04 6:8.66 7:3.95699E-5 8:0.03 9:13.0 10:0.270667 11:1.31746E-4 
0.39885569064730625 1:0.279355 2:0.00629046 3:-3.22546 4:17.0681 5:0.04 6:8.66 7:3.95699E-5 8:0.03 9:12.0 10:0.270667 11:1.14518E-4 
0.2389964526271285 1:0.279032 2:0.00597486 3:-3.79083 4:19.773 5:0.04 6:8.65 7:3.56989E-5 8:0.03 9:12.0 10:0.270333 11:1.0E-4 
0.6563825878198929 1:0.27871 2:0.00562254 3:-4.62523 4:23.6166 5:0.03 6:8.64 7:3.16129E-5 8:0.03 9:11.0 10:0.270667 11:8.58974E-5 
1.0 1:0.934839 2:0.27679 3:0.782402 4:2.42045 5:0.91 6:28.98 7:0.0766125 8:0.02 9:2.0 10:0.589 11:-0.00884783 
1.0 1:0.904839 2:0.260024 3:0.818498 4:2.55831 5:0.84 6:28.05 7:0.0676125 8:0.02 9:2.0 10:0.552 11:-0.0100456 
1.0 1:0.877742 2:0.245774 3:0.892436 4:2.83703 5:0.83 6:27.21 7:0.0604047 8:0.03 9:2.0 10:0.553333 11:-0.0138212 
1.0 1:0.851935 2:0.230643 3:0.969968 4:3.18843 5:0.83 6:26.41 7:0.0531961 9:3.0 10:0.552333 
1.0 1:0.825161 2:0.208405 3:0.925828 4:3.19876 5:0.79 6:25.58 7:0.0434325 9:3.0 10:0.553667 
1.0 1:0.799032 2:0.18465 3:0.71639 4:2.56928 5:0.63 6:24.77 7:0.0340957 9:3.0 10:0.539667 
1.0 1:0.778387 2:0.172551 3:0.70754 4:2.62309 5:0.61 6:24.13 7:0.029774 9:3.0 10:0.530667 
1.0 1:0.758387 2:0.159919 3:0.649271 4:2.53803 5:0.59 6:23.51 7:0.025574 9:3.0 10:0.521667 
1.0 1:0.739032 2:0.146705 3:0.504101 4:2.13705 5:0.51 6:22.91 7:0.0215224 9:3.0 10:0.514667 
1.0 1:0.722581 2:0.13784 3:0.458307 4:1.98524 5:0.47 6:22.4 7:0.0189998 9:3.0 10:0.516 
1.0 1:0.707097 2:0.130056 3:0.411466 4:1.80771 5:0.43 6:21.92 7:0.0169146 9:3.0 10:0.507667 
1.0 1:0.692903 2:0.12429 3:0.402545 4:1.72558 5:0.41 6:21.48 7:0.015448 9:3.0 10:0.498667 
1.0 1:0.679355 2:0.119246 3:0.399062 4:1.65792 5:0.37 6:21.06 7:0.0142196 9:3.0 10:0.490333 
1.0 1:0.667097 2:0.116367 3:0.446455 4:1.73516 5:0.36 6:20.68 7:0.0135413 9:3.0 10:0.481 
1.0 1:0.655484 2:0.113368 3:0.511921 4:1.84781 5:0.35 6:20.32 7:0.0128523 9:3.0 10:0.481333 
1.0 1:0.643871 2:0.110111 3:0.569038 4:1.97824 5:0.35 6:19.96 7:0.0121245 9:3.0 10:0.471667 
1.0 1:0.632258 2:0.106574 3:0.614112 4:2.12021 5:0.34 6:19.6 7:0.0113581 9:3.0 10:0.462333 
1.0 1:0.62129 2:0.10298 3:0.677512 4:2.31214 5:0.33 6:19.26 7:0.0106049 9:3.0 10:0.462667 
1.0 1:0.610645 2:0.098723 3:0.743137 4:2.53349 5:0.32 6:18.93 7:0.00974624 9:3.0 10:0.463 
1.0 1:0.6 2:0.0941984 3:0.790016 4:2.77661 5:0.32 6:18.6 7:0.00887333 9:3.0 10:0.453333 
1.0 1:0.589677 2:0.0889376 3:0.825697 4:3.03348 5:0.31 6:18.28 7:0.00790989 9:3.0 10:0.453667 
1.0 1:0.579355 2:0.0833041 3:0.81303 4:3.25022 5:0.32 6:17.96 7:0.00693957 9:3.0 10:0.443667 
1.0 1:0.569032 2:0.0758224 3:0.667865 4:3.08741 5:0.31 6:17.64 7:0.00574903 9:3.0 10:0.444 
1.0 1:0.55871 2:0.0674656 3:0.239298 4:1.87018 5:0.23 6:17.32 7:0.00455161 9:3.0 10:0.437 
0.40974570423599876 1:0.529677 2:0.0568908 3:0.301976 4:1.93188 5:0.2 6:16.42 7:0.00323656 9:3.0 10:0.419333 
1.0 1:0.523871 2:0.0565495 3:0.348539 4:2.05263 5:0.2 6:16.24 7:0.00319785 8:0.02 9:3.0 10:0.419333 11:-0.00346207 
1.0 1:0.517742 2:0.0560779 3:0.362467 4:2.18245 5:0.21 6:16.05 7:0.00314473 9:3.0 10:0.408667 
1.0 1:0.510968 2:0.0534387 3:0.251848 4:1.98319 5:0.17 6:15.84 7:0.0028557 9:3.0 10:0.41 
1.0 1:0.505484 2:0.0527155 3:0.294764 4:2.06319 5:0.17 6:15.67 7:0.00277892 9:3.0 10:0.41 
0.8454979538673687 1:0.499677 2:0.0518642 3:0.295611 4:2.13302 5:0.18 6:15.49 7:0.00268989 9:3.0 10:0.4 
1.0 1:0.456129 2:0.0386158 3:0.31735 4:1.67049 5:0.11 6:14.14 7:0.00149118 9:3.0 10:0.392667 
0.06982839849820056 1:0.420968 2:0.0315547 3:2.0321 4:6.93214 5:0.13 6:13.05 7:9.95699E-4 8:0.01 9:5.0 10:0.372667 11:-5.60401E-4 
1.0 1:0.417097 2:0.0258449 3:2.23424 4:9.21417 5:0.13 6:12.93 7:6.67957E-4 8:0.01 9:5.0 10:0.382667 11:-2.13509E-4 
1.0 1:0.41129 2:0.0154363 3:0.831524 4:2.80437 5:0.06 6:12.75 7:2.3828E-4 8:0.01 9:5.0 10:0.385 11:-1.08823E-4 
1.0 1:0.409355 2:0.0141269 3:0.69223 4:2.50253 5:0.05 6:12.69 7:1.9957E-4 8:0.01 9:5.0 10:0.375333 11:-3.95473E-4 
0.5515438019380096 1:0.407742 2:0.0133441 3:0.678002 4:2.58027 5:0.05 6:12.64 7:1.78065E-4 8:0.01 9:5.0 10:0.375333 11:-3.83277E-4 
1.0 1:0.40129 2:0.00991361 3:0.574542 4:2.37215 5:0.03 6:12.44 7:9.82796E-5 8:0.01 9:5.0 10:0.376 11:-1.86852E-4 
1.0 1:0.399355 2:0.0089202 3:0.698355 4:2.78425 5:0.03 6:12.38 7:7.95699E-5 8:0.01 9:6.0 10:0.376 11:-1.46348E-4 
1.0 1:0.398387 2:0.00820438 3:0.668858 4:2.80216 5:0.03 6:12.35 7:6.73118E-5 8:0.01 9:7.0 10:0.376 11:-1.2859E-4 
1.0 1:0.396774 2:0.00701764 3:0.523382 4:2.17691 5:0.02 6:12.3 7:4.92473E-5 8:0.01 9:9.0 10:0.376333 11:-9.99011E-5 
1.0 1:0.396129 2:0.00667204 3:0.605438 4:2.34898 5:0.02 6:12.28 7:4.45161E-5 8:0.01 9:10.0 10:0.376333 11:-8.85188E-5 
1.0 1:0.394194 2:0.0050161 3:0.32686 4:1.10684 5:0.01 6:12.22 7:2.51613E-5 8:0.01 9:13.0 10:0.376667 11:-5.8246E-5 
1.0 1:0.393871 2:0.00495138 3:0.463586 4:1.21491 5:0.01 6:12.21 7:2.45161E-5 8:0.01 9:14.0 10:0.376667 11:-5.24258E-5 
0.429620304155335 1:0.39129 2:0.00340777 3:2.21318 4:5.89815 5:0.01 6:12.13 7:1.16129E-5 9:22.0 10:0.376667 
0.21946855712916968 1:0.390645 2:0.00249731 3:3.54527 4:13.569 5:0.01 6:12.11 7:6.23656E-6 8:0.01 9:26.0 10:0.377 11:-2.5E-5 
0.11204868098632578 1:0.390645 2:0.00249731 3:3.54527 4:13.569 5:0.01 6:12.11 7:6.23656E-6 8:0.01 9:19.0 10:0.377 11:-2.15909E-5 
0.05267061455119144 1:0.390645 2:0.00249731 3:3.54527 4:13.569 5:0.01 6:12.11 7:6.23656E-6 8:0.01 9:15.0 10:0.377 11:-1.5E-5 
0.5487980633763145 1:0.390645 2:0.00249731 3:3.54527 4:13.569 5:0.01 6:12.11 7:6.23656E-6 8:0.01 9:14.0 10:0.377 11:-1.39423E-5 
0.17285892845668394 1:0.39129 2:0.00427546 3:3.38638 4:13.8258 5:0.02 6:12.13 7:1.82796E-5 8:0.02 9:13.0 10:0.397 11:0.00117623 
0.7496734750161047 1:0.391613 2:0.00454369 3:2.8439 4:10.4515 5:0.02 6:12.14 7:2.06452E-5 8:0.01 9:14.0 10:0.387 11:2.89181E-4 
1.0 1:0.387419 2:0.0156988 3:-1.14052 4:3.99173 5:0.06 6:12.01 7:2.46452E-4 8:0.02 9:9.0 10:0.337 11:-0.00187854 
1.0 1:0.386129 2:0.0170641 3:-1.01445 4:3.30859 5:0.06 6:11.97 7:2.91183E-4 8:0.02 9:8.0 10:0.337 11:-0.0016447 
1.0 1:0.384839 2:0.0182338 3:-0.879203 4:2.78462 5:0.06 6:11.93 7:3.32473E-4 8:0.02 9:7.0 10:0.337 11:-0.00146656 
1.0 1:0.552581 2:0.0602754 3:0.17046 4:2.8837 5:0.23 6:17.13 7:0.00363312 9:5.0 10:0.427333 
1.0 1:0.545161 2:0.0581877 3:0.0390378 4:2.7802 5:0.21 6:16.9 7:0.00338581 9:5.0 10:0.428 
1.0 1:0.538065 2:0.0571209 3:-0.0646179 4:2.69816 5:0.22 6:16.68 7:0.0032628 9:5.0 10:0.418 
1.0 1:0.530968 2:0.0550972 3:-0.23529 4:2.40996 5:0.2 6:16.46 7:0.0030357 9:5.0 10:0.418667 
1.0 1:0.524194 2:0.0541464 3:-0.360687 4:2.1531 5:0.2 6:16.25 7:0.00293183 9:5.0 10:0.409 
1.0 1:0.517742 2:0.0530226 3:-0.470368 4:1.81365 5:0.17 6:16.05 7:0.0028114 9:5.0 10:0.41 
1.0 1:0.512258 2:0.0530226 3:-0.433865 4:1.62352 5:0.16 6:15.88 7:0.0028114 9:5.0 10:0.410333 
1.0 1:0.507097 2:0.0529902 3:-0.370408 4:1.46233 5:0.15 6:15.72 7:0.00280796 9:5.0 10:0.410667 
0.025249147798984493 1:0.502258 2:0.0529597 3:-0.284545 4:1.33916 5:0.15 6:15.57 7:0.00280473 9:5.0 10:0.410667 
1.0 1:0.47129 2:0.0516231 3:0.471532 4:1.43269 5:0.13 6:14.61 7:0.00266495 9:4.0 10:0.401667 
1.0 1:0.467097 2:0.0502788 3:0.599372 4:1.5827 5:0.13 6:14.48 7:0.00252796 9:5.0 10:0.401667 
0.6022667153871454 1:0.45129 2:0.0424847 3:1.2321 4:2.90253 5:0.12 6:13.99 7:0.00180495 9:9.0 10:0.402 
1.0 1:0.439355 2:0.0327552 3:1.86888 4:5.48964 5:0.12 6:13.62 7:0.0010729 8:0.04 9:12.0 10:0.392333 11:-0.00217769 
1.0 1:0.435484 2:0.0285001 3:2.12678 4:7.15203 5:0.12 6:13.5 7:8.12258E-4 9:12.0 10:0.392333 
0.9758370570604932 1:0.431613 2:0.0228177 3:2.21132 4:8.66655 5:0.11 6:13.38 7:5.20645E-4 8:0.04 9:12.0 10:0.394 11:-0.00149105 
0.3103129191488925 1:0.429355 2:0.0212815 3:2.61663 4:11.6281 5:0.11 6:13.31 7:4.52903E-4 9:12.0 10:0.392667 
0.006859553141221889 1:0.402581 2:0.00855092 3:-0.515671 4:1.60548 5:0.02 6:12.48 7:7.31183E-5 8:0.01 9:13.0 10:0.376333 11:-2.18901E-4 
0.6034121591481085 1:0.401935 2:0.0087252 3:-0.381874 4:1.46313 5:0.02 6:12.46 7:7.6129E-5 8:0.01 9:12.0 10:0.376333 11:-1.99004E-4 
1.0 1:0.400645 2:0.0089202 3:-0.125483 4:1.31011 5:0.02 6:12.42 7:7.95699E-5 8:0.01 9:10.0 10:0.376333 11:-1.64785E-4 
1.0 1:0.539355 2:0.0366001 3:-0.984294 4:4.02182 5:0.15 6:16.72 7:0.00133957 9:6.0 10:0.43 
1.0 1:0.534516 2:0.0381959 3:-1.04699 4:3.56435 5:0.15 6:16.57 7:0.00145892 9:7.0 10:0.43 
1.0 1:0.529677 2:0.0391138 3:-1.09659 4:3.07485 5:0.13 6:16.42 7:0.00152989 9:6.0 10:0.430667 
1.0 1:0.525484 2:0.0404836 3:-0.995342 4:2.62805 5:0.13 6:16.29 7:0.00163892 9:7.0 10:0.430667 
1.0 1:0.52129 2:0.0413716 3:-0.905739 4:2.25031 5:0.13 6:16.16 7:0.00171161 9:7.0 10:0.430667 
1.0 1:0.516774 2:0.0423782 3:-0.845717 4:1.94646 5:0.12 6:16.02 7:0.00179591 9:7.0 10:0.421333 
1.0 1:0.512903 2:0.0437564 3:-0.713477 4:1.70098 5:0.12 6:15.9 7:0.00191462 9:6.0 10:0.421333 
1.0 1:0.509032 2:0.0447478 3:-0.588645 4:1.50207 5:0.11 6:15.78 7:0.00200237 9:7.0 10:0.421667 
1.0 1:0.505161 2:0.0462508 3:-0.469863 4:1.38521 5:0.12 6:15.66 7:0.00213914 9:6.0 10:0.411667 
1.0 1:0.475806 2:0.0453706 3:0.497843 4:1.40498 5:0.11 6:14.75 7:0.00205849 9:5.0 10:0.412 
1.0 1:0.472258 2:0.0444754 3:0.633449 4:1.57681 5:0.11 6:14.64 7:0.00197806 9:5.0 10:0.412 
1.0 1:0.468387 2:0.0435964 3:0.758575 4:1.80313 5:0.12 6:14.52 7:0.00190065 9:5.0 10:0.402 
1.0 1:0.464516 2:0.0423351 3:0.893461 4:2.08484 5:0.12 6:14.4 7:0.00179226 9:5.0 10:0.402 
1.0 1:0.460645 2:0.0406559 3:1.03872 4:2.43726 5:0.12 6:14.28 7:0.0016529 9:5.0 10:0.402 
1.0 1:0.456774 2:0.0385043 3:1.19395 4:2.87607 5:0.11 6:14.16 7:0.00148258 9:5.0 10:0.402333 
1.0 1:0.453226 2:0.0365502 3:1.38591 4:3.5112 5:0.11 6:14.05 7:0.00133591 9:5.0 10:0.402333 
0.8006406402971397 1:0.449677 2:0.0341061 3:1.60635 4:4.39002 5:0.11 6:13.94 7:0.00116323 9:5.0 10:0.402333 
0.3945117730137036 1:0.439032 2:0.0221141 3:2.36127 4:10.3159 5:0.11 6:13.61 7:4.89032E-4 9:5.0 10:0.402333 
1.0 1:0.435484 2:0.0145691 3:0.691711 4:2.81975 5:0.05 6:13.5 7:2.12258E-4 9:6.0 10:0.404333 
0.07090406382669322 1:0.421613 2:0.00522607 3:1.63929 4:7.03959 5:0.03 6:13.07 7:2.73118E-5 8:0.01 9:21.0 10:0.405333 11:2.87638E-5 
0.14118543266372102 1:0.420323 2:0.00314523 3:0.77513 4:10.1706 5:0.02 6:13.03 7:9.89247E-6 8:0.01 9:22.0 10:0.405667 11:1.32184E-5 
0.8269902431381801 1:0.42 2:0.00258199 4:15.5 5:0.02 6:13.02 7:6.66667E-6 8:0.01 9:21.0 10:0.405667 11:1.33333E-5 
1.0 1:0.419677 2:0.00179605 3:-5.29465 4:29.0333 5:0.01 6:13.01 7:3.22581E-6 8:0.01 9:22.0 10:0.406 11:1.42857E-5 
1.0 1:0.419677 2:0.00179605 3:-5.29465 4:29.0333 5:0.01 6:13.01 7:3.22581E-6 8:0.01 9:21.0 10:0.406 11:1.25E-5 
0.06839048706837163 1:0.419677 2:0.00179605 3:-5.29465 4:29.0333 5:0.01 6:13.01 7:3.22581E-6 8:0.01 9:20.0 10:0.406 11:1.11111E-5 
1.0 1:0.419355 2:0.00249731 3:-3.54527 4:13.569 5:0.01 6:13.0 7:6.23656E-6 8:0.01 9:19.0 10:0.396 11:-2.89499E-4 
0.46431772070936583 1:0.419032 2:0.00300537 3:-2.72772 4:8.44048 5:0.01 6:12.99 7:9.03226E-6 8:0.01 9:18.0 10:0.396 11:-2.90408E-4 
1.0 1:0.419032 2:0.00300537 3:-2.72772 4:8.44048 5:0.01 6:12.99 7:9.03226E-6 8:0.01 9:17.0 10:0.406 11:5.83333E-5 
1.0 1:0.418065 2:0.0040161 3:-1.55134 4:3.40667 5:0.01 6:12.96 7:1.6129E-5 8:0.01 9:14.0 10:0.396 11:-1.97832E-4 
1.0 1:0.417742 2:0.00425024 3:-1.31158 4:2.72024 5:0.01 6:12.95 7:1.80645E-5 8:0.01 9:13.0 10:0.396 11:-1.73249E-4 
0.08238526615115517 1:0.415161 2:0.00508001 3:-0.0645497 4:1.00417 5:0.01 6:12.87 7:2.58065E-5 8:0.01 9:9.0 10:0.396 11:-7.85091E-5 
1.0 1:0.414839 2:0.00508001 3:0.0645497 4:1.00417 5:0.01 6:12.86 7:2.58065E-5 8:0.01 9:9.0 10:0.396 11:-7.13681E-5 
0.6396675537226075 1:0.414194 2:0.0050161 3:0.32686 4:1.10684 5:0.01 6:12.84 7:2.51613E-5 9:12.0 10:0.396 
0.46003090390121737 1:0.410968 2:0.00300537 3:2.72772 4:8.44048 5:0.01 6:12.74 7:9.03226E-6 9:22.0 10:0.396 
0.9321114562416467 1:0.926452 2:0.243975 3:4.03215 4:20.5019 5:1.4 6:28.72 7:0.0595237 8:0.95 9:6.0 10:2.095 11:3.74089 
1.0 1:0.969677 2:0.358446 3:3.20695 4:12.3101 5:1.66 6:30.06 7:0.128483 8:0.45 9:6.0 10:2.35667 11:2.03437 
1.0 1:1.01323 2:0.435893 3:2.55354 4:7.99328 5:1.66 6:31.41 7:0.190003 8:1.4 9:6.0 10:2.31667 11:5.31984 
1.0 1:1.08 2:0.571314 3:2.35701 4:7.28937 5:2.34 6:33.48 7:0.3264 8:1.66 9:6.0 10:3.03633 11:8.99446 
1.0 1:1.18032 2:0.789867 3:2.43424 4:8.19553 5:3.39 6:36.59 7:0.62389 8:1.77 9:6.0 10:4.08667 11:14.4936 
1.0 1:1.2829 2:0.954918 3:2.09927 4:6.20169 5:3.45 6:39.77 7:0.911868 8:1.77 9:6.0 10:4.14767 11:13.6452 
1.0 1:1.37226 2:1.04957 3:1.75636 4:4.63071 5:3.45 6:42.54 7:1.1016 8:1.77 9:6.0 10:3.70867 11:9.51745 
1.0 1:1.47839 2:1.16445 3:1.50996 4:3.69401 5:3.5 6:45.83 7:1.35595 8:1.83 9:5.0 10:4.19967 11:11.1093 
1.0 1:1.60613 2:1.30834 3:1.35888 4:3.27351 5:4.14 6:49.79 7:1.71176 8:1.83 9:5.0 10:4.84067 11:13.8955 
1.0 1:1.71452 2:1.38322 3:1.14932 4:2.66614 5:4.14 6:53.15 7:1.91329 8:1.83 9:6.0 10:4.211 11:9.32453 
1.0 1:1.80419 2:1.41636 3:0.970806 4:2.26616 5:4.14 6:55.93 7:2.00607 8:1.83 9:5.0 10:3.621 11:4.60087 
1.0 1:1.88871 2:1.43678 3:0.814446 4:1.98291 5:4.14 6:58.55 7:2.06433 8:1.83 9:5.0 10:3.461 11:3.13837 
1.0 1:1.98161 2:1.46161 3:0.660978 4:1.73812 5:4.14 6:61.43 7:2.1363 8:1.83 9:5.0 10:3.721 11:4.51743 
1.0 1:2.08355 2:1.49139 3:0.515222 4:1.54317 5:4.14 6:64.59 7:2.22424 8:1.83 9:5.0 10:4.001 11:6.00689 
1.0 1:2.18194 2:1.50916 3:0.376804 4:1.40662 5:4.14 6:67.64 7:2.27756 8:1.83 9:5.0 10:3.891 11:5.02066 
1.0 1:2.27097 2:1.51059 3:0.247823 4:1.32983 5:4.14 6:70.4 7:2.2819 8:1.83 9:5.0 10:3.601 11:2.82879 
1.0 1:2.37774 2:1.52518 3:0.119635 4:1.27525 5:4.14 6:73.71 7:2.32617 8:1.83 9:5.0 10:4.15133 11:5.44843 
1.0 1:2.51581 2:1.57608 3:0.0532373 4:1.34708 5:4.41 6:77.99 7:2.48403 8:1.83 9:5.0 10:5.11133 11:10.6064 
0.41239818101254977 1:2.63871 2:1.59114 3:-0.062028 4:1.3546 5:4.41 6:81.8 7:2.53171 8:1.83 9:5.0 10:4.642 11:7.35912 
0.9930161716966359 1:2.76774 2:1.60256 3:-0.171071 4:1.40012 5:4.41 6:85.8 7:2.56818 8:1.83 9:5.0 10:4.81167 11:6.88451 
1.0 1:2.88452 2:1.59 3:-0.298509 4:1.47291 5:4.41 6:89.42 7:2.52809 8:1.83 9:5.0 10:4.44167 11:4.2494 
0.9912305802220006 1:2.98323 2:1.55406 3:-0.427907 4:1.60479 5:4.41 6:92.48 7:2.4151 8:1.83 9:6.0 10:3.88133 11:0.469282 
1.0 1:3.08161 2:1.51111 3:-0.562474 4:1.78838 5:4.41 6:95.53 7:2.28346 8:1.83 9:5.0 10:3.882 11:0.200979 
1.0 1:3.19065 2:1.46522 3:-0.707136 4:2.02663 5:4.41 6:98.91 7:2.14688 8:1.83 9:5.0 10:4.19167 11:2.09909 
1.0 1:3.31387 2:1.4218 3:-0.849566 4:2.32592 5:4.41 6:102.73 7:2.02152 8:1.83 9:5.0 10:4.64267 11:4.58904 
1.0 1:3.40806 2:1.34577 3:-0.998954 4:2.74586 5:4.41 6:105.65 7:1.81109 8:1.83 9:6.0 10:3.71567 11:-0.849098 
1.0 1:3.49806 2:1.25063 3:-1.13183 4:3.25648 5:4.41 6:108.44 7:1.56407 8:1.83 9:5.0 10:3.49567 11:-2.75944 
1.0 1:3.58065 2:1.14152 3:-1.22646 4:3.8291 5:4.41 6:111.0 7:1.30306 8:1.83 9:4.0 10:3.26567 11:-3.71185 
1.0 1:3.66258 2:1.01413 3:-1.24446 4:4.36498 5:4.4 6:113.54 7:1.02847 8:3.44 9:7.0 10:3.24533 11:-6.60101 
1.0 1:3.74613 2:0.860363 3:-1.00896 4:4.18063 5:3.96 6:116.13 7:0.740225 8:3.0 9:6.0 10:3.29067 11:-4.61954 
1.0 1:3.8229 2:0.718184 3:-0.516824 4:3.15003 5:3.01 6:118.51 7:0.515788 8:1.83 9:3.0 10:3.489 11:-1.29988 
1.0 1:3.87323 2:0.646706 3:-0.338098 4:3.24307 5:2.79 6:120.07 7:0.418229 8:1.8 9:5.0 10:3.61033 11:-0.412574 
1.0 1:3.91065 2:0.58901 3:-0.106041 4:3.33341 5:2.79 6:121.23 7:0.346933 8:1.83 9:3.0 10:3.47167 11:-1.25376 
1.0 1:3.9471 2:0.520149 3:0.527945 4:2.52498 5:2.07 6:122.36 7:0.270555 8:1.8 9:5.0 10:3.37767 11:-1.75726 
1.0 1:3.96645 2:0.497075 3:0.66641 4:2.58198 5:1.87 6:122.96 7:0.247084 8:0.96 9:3.0 10:3.53267 11:-0.352748 
1.0 1:3.95968 2:0.496343 3:0.709933 4:2.63518 5:1.87 6:122.75 7:0.246357 8:1.04 9:3.0 10:3.77067 11:0.466344 
1.0 1:3.96323 2:0.49836 3:0.686575 4:2.57792 5:1.87 6:122.86 7:0.248363 8:0.96 9:3.0 10:4.16533 11:1.509 
1.0 1:3.97097 2:0.496638 3:0.649277 4:2.5698 5:1.87 6:123.1 7:0.246649 8:1.04 9:3.0 10:3.839 11:0.536015 
1.0 1:3.95 2:0.499052 3:0.747074 4:2.64758 5:1.87 6:122.45 7:0.249053 8:1.04 9:3.0 10:3.41767 11:-0.973507 
1.0 1:3.9071 2:0.473858 3:0.879647 4:3.06 5:1.87 6:121.12 7:0.224541 8:1.04 9:3.0 10:3.39867 11:-1.08851 
0.39845043419226717 1:3.88419 2:0.474389 3:0.995315 4:3.23265 5:1.87 6:120.41 7:0.225045 8:0.96 9:3.0 10:3.40833 11:-0.858885 
1.0 1:3.88677 2:0.472387 3:1.00109 4:3.25543 5:1.87 6:120.49 7:0.223149 8:0.96 9:3.0 10:3.525 11:-0.322257 
1.0 1:3.88419 2:0.473376 3:1.00901 4:3.25175 5:1.87 6:120.41 7:0.224085 8:1.04 9:3.0 10:3.53567 11:-0.236446 
1.0 1:3.86968 2:0.47565 3:1.07787 4:3.32345 5:1.87 6:119.96 7:0.226243 8:0.96 9:3.0 10:3.44933 11:-0.466704 
1.0 1:3.85452 2:0.480998 3:1.11984 4:3.32989 5:1.87 6:119.49 7:0.231359 8:0.96 9:3.0 10:3.44067 11:-0.418573 
1.0 1:3.84323 2:0.477196 3:1.20823 4:3.54259 5:1.87 6:119.14 7:0.227716 8:0.76 9:3.0 10:3.65867 11:0.306525 
1.0 1:3.81194 2:0.417384 3:1.03476 4:3.13693 5:1.57 6:118.17 7:0.174209 8:0.59 9:3.0 10:4.01433 11:0.874819 
1.0 1:3.79516 2:0.39139 3:1.05049 4:3.45218 5:1.57 6:117.65 7:0.153186 8:0.59 9:3.0 10:3.98867 11:0.793466 
1.0 1:3.76774 2:0.342469 3:0.856744 4:3.14757 5:1.4 6:116.8 7:0.117285 8:0.59 9:3.0 10:3.841 11:0.391553 
1.0 1:3.74903 2:0.317777 3:0.888368 4:3.61629 5:1.4 6:116.22 7:0.100982 8:0.76 9:3.0 10:3.75967 11:0.179201 
0.7674069536187083 1:3.75677 2:0.324678 3:0.819879 4:3.31352 5:1.4 6:116.46 7:0.105416 8:0.57 9:3.0 10:4.01967 11:0.560866 
1.0 1:3.7829 2:0.348723 3:0.708576 4:2.85511 5:1.44 6:117.27 7:0.121608 8:0.57 9:3.0 10:3.92267 11:0.045413 
1.0 1:3.79065 2:0.34534 3:0.676169 4:2.89234 5:1.44 6:117.51 7:0.11926 8:0.57 9:4.0 10:3.65033 11:-0.459599 
1.0 1:3.8871 2:0.312956 3:0.851706 4:2.99915 5:1.22 6:120.5 7:0.0979413 8:0.65 9:4.0 10:4.40767 11:1.39516 
0.7576650835891279 1:3.91323 2:0.327693 3:0.708745 4:2.5882 5:1.22 6:121.31 7:0.107383 8:0.79 9:5.0 10:4.36067 11:1.39678 
0.48395665946975325 1:4.08871 2:0.398863 3:0.0592419 4:1.45886 5:1.2 6:126.75 7:0.159092 8:1.04 9:6.0 10:4.23633 11:0.236959 
1.0 1:4.08806 2:0.398509 3:0.0629017 4:1.46341 5:1.2 6:126.73 7:0.158809 8:1.04 9:6.0 10:4.15533 11:-0.142839 
1.0 1:4.09581 2:0.399873 3:0.00701548 4:1.44249 5:1.2 6:126.97 7:0.159898 8:1.04 9:6.0 10:4.15467 11:-0.120695 
1.0 1:4.11806 2:0.399762 3:-0.119304 4:1.45595 5:1.2 6:127.66 7:0.159809 8:1.04 9:6.0 10:4.31967 11:0.465241 
1.0 1:4.17484 2:0.41694 3:-0.289685 4:1.56331 5:1.31 6:129.42 7:0.173839 8:1.04 9:6.0 10:4.67533 11:1.51746 
1.0 1:4.21581 2:0.434801 3:-0.26963 4:1.80441 5:1.52 6:130.69 7:0.189052 8:1.04 9:6.0 10:4.88533 11:2.03385 
1.0 1:4.26452 2:0.463363 3:-0.131152 4:2.20285 5:1.76 6:132.2 7:0.214706 8:1.04 9:6.0 10:5.12667 11:2.58153 
1.0 1:4.31742 2:0.489639 3:-0.0309693 4:2.44868 5:1.85 6:133.84 7:0.239746 8:1.04 9:6.0 10:5.21267 11:2.60334 
1.0 1:4.35645 2:0.49684 3:-0.135762 4:2.42597 5:1.85 6:135.05 7:0.24685 8:1.04 9:6.0 10:4.90767 11:1.32306 
1.0 1:4.4029 2:0.497837 3:-0.214009 4:2.49004 5:1.85 6:136.49 7:0.247841 8:1.06 9:6.0 10:4.98867 11:1.30805 
1.0 1:4.45548 2:0.500645 3:-0.23599 4:2.5911 5:1.85 6:138.12 7:0.250646 8:1.06 9:6.0 10:5.14767 11:1.74593 
1.0 1:4.51097 2:0.505973 3:-0.224146 4:2.70967 5:1.9 6:139.84 7:0.256009 8:1.06 9:6.0 10:5.27367 11:1.99839 
1.0 1:4.57935 2:0.506649 3:-0.0143213 4:2.78447 5:2.07 6:141.96 7:0.256693 8:1.06 9:6.0 10:5.492 11:2.49014 
1.0 1:4.65581 2:0.52313 3:0.361422 4:3.0073 5:2.36 6:144.33 7:0.273665 8:1.06 9:6.0 10:5.79167 11:3.21231 
1.0 1:4.72613 2:0.516002 3:0.597529 4:2.65074 5:2.12 6:146.51 7:0.266258 8:1.06 9:6.0 10:5.60367 11:2.33801 
1.0 1:4.77677 2:0.497784 3:0.649515 4:2.38735 5:1.84 6:148.08 7:0.247789 8:1.06 9:6.0 10:5.22433 11:0.774707 
1.0 1:4.81871 2:0.49097 3:0.57666 4:2.20261 5:1.84 6:149.38 7:0.241052 8:1.06 9:6.0 10:5.22733 11:0.613 
1.0 1:4.85452 2:0.490849 3:0.452436 4:2.0508 5:1.84 6:150.49 7:0.240932 8:1.06 9:6.0 10:5.239 11:0.705678 
1.0 1:4.88516 2:0.499492 3:0.317838 4:1.8884 5:1.84 6:151.44 7:0.249492 8:1.06 9:6.0 10:5.33067 11:0.97618 
1.0 1:4.91871 2:0.506253 3:0.187064 4:1.78293 5:1.84 6:152.48 7:0.256292 8:1.06 9:6.0 10:5.37467 11:1.05909 
1.0 1:4.97806 2:0.544949 3:0.293407 4:2.13889 5:2.13 6:154.32 7:0.296969 8:1.06 9:6.0 10:6.06433 11:3.11864 
1.0 1:5.03806 2:0.544031 3:0.296257 4:2.00048 5:1.92 6:156.18 7:0.295969 8:1.06 9:6.0 10:5.786 11:2.14617 
1.0 1:5.09355 2:0.555935 3:0.243601 4:1.94137 5:1.92 6:157.9 7:0.309064 8:0.89 9:5.0 10:5.889 11:1.7162 
1.0 1:5.13387 2:0.559021 3:0.11668 4:1.87509 5:1.92 6:159.15 7:0.312505 8:1.06 9:6.0 10:5.62367 11:1.04706 
1.0 1:5.16452 2:0.559916 3:-0.00905202 4:1.85596 5:1.92 6:160.1 7:0.313506 8:0.89 9:5.0 10:5.48567 11:0.333432 
1.0 1:5.19161 2:0.553474 3:-0.122578 4:1.92665 5:1.92 6:160.94 7:0.306334 8:1.06 9:6.0 10:5.31933 11:-0.175797 
1.0 1:5.21871 2:0.539893 3:-0.218996 4:2.07485 5:1.92 6:161.78 7:0.291485 8:1.06 9:6.0 10:5.207 11:-0.510258 
1.0 1:5.24032 2:0.527146 3:-0.302874 4:2.25332 5:1.92 6:162.45 7:0.277883 8:1.06 9:6.0 10:5.10867 11:-0.751204 
1.0 1:5.25581 2:0.512743 3:-0.337595 4:2.43448 5:1.92 6:162.93 7:0.262905 8:1.06 9:6.0 10:4.865 11:-1.42328 
1.0 1:5.27323 2:0.500502 3:-0.409145 4:2.65798 5:1.92 6:163.47 7:0.250503 8:1.06 9:6.0 10:5.044 11:-0.777675 
1.0 1:5.30484 2:0.472362 3:-0.461793 4:3.00774 5:1.92 6:164.45 7:0.223126 8:0.89 9:5.0 10:5.217 11:-0.0450322 
0.5017467787781482 1:5.39032 2:0.519971 3:0.453448 4:4.44574 5:2.66 6:167.1 7:0.27037 8:1.06 9:6.0 10:6.79733 11:4.98932 
0.29321714970188345 1:5.49097 2:0.594505 3:1.31168 4:5.59888 5:2.95 6:170.22 7:0.353436 8:0.89 9:5.0 10:7.25167 11:5.35798 
0.8618755015416584 1:5.56258 2:0.598626 3:1.35521 4:4.90148 5:2.79 6:172.44 7:0.358353 8:1.92 9:5.0 10:6.51633 11:5.77316 
0.9905796405375165 1:5.61645 2:0.585033 3:1.37902 4:4.63996 5:2.6 6:174.11 7:0.342264 8:2.38 9:5.0 10:6.12 11:2.51985 
1.0 1:5.66161 2:0.573836 3:1.35404 4:4.4368 5:2.39 6:175.51 7:0.329287 8:2.38 9:4.0 10:6.033 11:1.48117 
1.0 1:5.69065 2:0.562423 3:1.3362 4:4.45029 5:2.38 6:176.41 7:0.31632 8:2.38 9:5.0 10:5.735 11:-0.580439 
1.0 1:5.73323 2:0.57771 3:1.14225 4:3.79481 5:2.38 6:177.73 7:0.333749 8:2.38 9:4.0 10:6.392 11:4.12539 
1.0 1:5.76129 2:0.579101 3:1.01565 4:3.55228 5:2.38 6:178.6 7:0.335358 8:2.38 9:5.0 10:6.04233 11:1.84268 
0.9690086491742579 1:5.81742 2:0.590079 3:0.902789 4:3.10274 5:2.38 6:180.34 7:0.348193 8:2.38 9:4.0 10:6.59967 11:5.16595 
1.0 1:5.85161 2:0.578314 3:0.848186 4:3.06506 5:2.38 6:181.4 7:0.334447 8:2.38 9:5.0 10:5.99433 11:0.849372 
1.0 1:5.87226 2:0.568194 3:0.819841 4:3.12221 5:2.38 6:182.04 7:0.322845 8:2.38 9:5.0 10:5.73033 11:-1.74703 
1.0 1:5.88613 2:0.561235 3:0.796803 4:3.17734 5:2.38 6:182.47 7:0.314985 8:2.38 9:4.0 10:5.633 11:-2.20185 
1.0 1:5.89194 2:0.55921 3:0.77773 4:3.18808 5:2.38 6:182.65 7:0.312716 8:2.38 9:4.0 10:5.593 11:-2.03471 
1.0 1:5.88452 2:0.560487 3:0.810966 4:3.2024 5:2.38 6:182.42 7:0.314146 8:2.38 9:4.0 10:5.489 11:-2.46451 
1.0 1:5.87484 2:0.565808 3:0.823589 4:3.15323 5:2.38 6:182.12 7:0.320139 8:2.38 9:5.0 10:5.25133 11:-3.98467 
1.0 1:5.88065 2:0.561254 3:0.831209 4:3.20117 5:2.38 6:182.3 7:0.315006 8:2.38 9:4.0 10:5.361 11:-2.91146 
1.0 1:5.93677 2:0.594505 3:0.731679 4:2.8177 5:2.38 6:184.04 7:0.353436 8:2.38 9:5.0 10:6.93033 11:8.77857 
1.0 1:6.00258 2:0.6429 3:0.710704 4:2.68389 5:2.41 6:186.08 7:0.41332 8:2.38 9:4.0 10:7.24733 11:11.2785 
1.0 1:6.03258 2:0.63939 3:0.606542 4:2.60423 5:2.41 6:187.01 7:0.40882 8:2.38 9:4.0 10:6.226 11:2.32565 
1.0 1:6.05161 2:0.632366 3:0.553275 4:2.63369 5:2.41 6:187.6 7:0.399887 8:2.38 9:4.0 10:5.90333 11:-1.28202 
1.0 1:6.02677 2:0.641402 3:0.617116 4:2.60656 5:2.41 6:186.83 7:0.411396 8:2.38 9:4.0 10:5.23233 11:-5.91869 
0.7992561897190272 1:6.00161 2:0.660344 3:0.602568 4:2.51149 5:2.41 6:186.05 7:0.436054 8:2.38 9:4.0 10:4.94867 11:-7.54297 
0.045050985732454946 1:5.97935 2:0.670557 3:0.645619 4:2.47297 5:2.41 6:185.36 7:0.449646 8:2.38 9:4.0 10:5.15733 11:-5.10286 
0.5214176920651385 1:5.94677 2:0.694096 3:0.645572 4:2.34984 5:2.41 6:184.35 7:0.481769 8:2.21 9:3.0 10:5.13467 11:-3.02613 
1.0 1:5.94935 2:0.691602 3:0.651499 4:2.36086 5:2.41 6:184.43 7:0.478313 8:2.38 9:4.0 10:5.17267 11:-2.82337 
1.0 1:5.96194 2:0.677537 3:0.706642 4:2.3995 5:2.28 6:184.82 7:0.459056 8:2.21 9:3.0 10:5.237 11:-1.97767 
0.12267278938876872 1:5.94903 2:0.696278 3:0.592229 4:2.41831 5:2.64 6:184.42 7:0.484802 8:2.0 9:4.0 10:4.61133 11:-5.38723 
1.0 1:5.91806 2:0.743121 3:0.324276 4:2.5447 5:3.03 6:183.46 7:0.552229 8:2.0 9:5.0 10:4.16867 11:-7.67701 
1.0 1:5.83645 2:0.765731 3:0.283309 4:2.71835 5:3.03 6:180.93 7:0.586344 8:2.0 9:5.0 10:4.16333 11:-6.83723 
1.0 1:5.73935 2:0.751567 3:0.149238 4:2.73111 5:3.04 6:177.92 7:0.564853 8:2.0 9:5.0 10:4.16767 11:-5.96614 
1.0 1:5.67258 2:0.758054 3:0.237039 4:2.77307 5:3.04 6:175.85 7:0.574646 8:2.0 9:5.0 10:4.39067 11:-4.01382 
1.0 1:5.63032 2:0.759577 3:0.361315 4:2.82457 5:3.04 6:174.54 7:0.576957 8:2.0 9:5.0 10:4.76333 11:-1.23736 
1.0 1:5.57871 2:0.773803 3:0.451962 4:2.81563 5:3.04 6:172.94 7:0.598772 8:2.0 9:5.0 10:4.403 11:-3.19878 
1.0 1:5.53935 2:0.787299 3:0.530426 4:2.77463 5:3.04 6:171.72 7:0.61984 8:2.0 9:5.0 10:4.471 11:-2.78591 
1.0 1:5.47968 2:0.776614 3:0.668448 4:3.03855 5:3.04 6:169.87 7:0.60313 8:2.0 9:5.0 10:4.513 11:-2.20726 
0.5572541102259652 1:5.44323 2:0.76766 3:0.803072 4:3.2982 5:3.04 6:168.74 7:0.589303 8:2.0 9:5.0 10:4.85433 11:0.157386 
1.0 1:5.3771 2:0.737253 3:0.951416 4:3.8446 5:3.04 6:166.69 7:0.543541 8:2.0 9:5.0 10:4.51433 11:-1.79421 
1.0 1:5.33419 2:0.728216 3:1.10982 4:4.24513 5:3.04 6:165.36 7:0.530298 8:2.0 9:5.0 10:4.643 11:-1.2716 
0.4503049300038175 1:5.30516 2:0.722412 3:1.23919 4:4.56318 5:3.04 6:164.46 7:0.521879 8:2.0 9:5.0 10:4.816 11:0.00833898 
0.46028782711498106 1:5.28129 2:0.717039 3:1.35523 4:4.86926 5:3.04 6:163.72 7:0.514145 8:0.87 9:5.0 10:4.887 11:0.216414 
0.8176740939983704 1:5.27 2:0.711496 3:1.42354 4:5.10415 5:3.04 6:163.37 7:0.506227 8:0.87 9:5.0 10:5.25067 11:1.11442 
1.0 1:5.27 2:0.711496 3:1.42354 4:5.10415 5:3.04 6:163.37 7:0.506227 8:2.0 9:5.0 10:5.499 11:3.88939 
1.0 1:5.22742 2:0.637045 3:1.40318 4:5.92656 5:3.04 6:162.05 7:0.405826 8:0.9 9:5.0 10:4.95233 11:-0.117331 
1.0 1:5.15194 2:0.488729 3:0.480044 4:3.0523 5:2.02 6:159.71 7:0.238856 8:0.98 9:6.0 10:4.87633 11:-0.586054 
1.0 1:5.10194 2:0.43169 3:0.202274 4:2.5489 5:1.72 6:158.16 7:0.186356 8:0.98 9:6.0 10:4.65633 11:-1.08152 
1.0 1:5.06548 2:0.389366 3:-0.0270356 4:2.23939 5:1.43 6:157.03 7:0.151606 8:0.98 9:6.0 10:4.799 11:-0.578807 
1.0 1:5.05871 2:0.38461 3:-9.81242E-4 4:2.32333 5:1.43 6:156.82 7:0.147925 8:0.98 9:6.0 10:5.04833 11:0.318121 
1.0 1:5.05645 2:0.384262 3:0.0164882 4:2.33184 5:1.43 6:156.75 7:0.147657 8:0.98 9:6.0 10:4.90167 11:-0.0299472 
1.0 1:5.05387 2:0.382489 3:0.0278741 4:2.36725 5:1.43 6:156.67 7:0.146298 8:0.98 9:6.0 10:5.09433 11:0.46625 
1.0 1:5.06161 2:0.389376 3:0.0144528 4:2.26212 5:1.43 6:156.91 7:0.151614 8:0.98 9:6.0 10:5.33233 11:1.20416 
1.0 1:5.06194 2:0.38961 3:0.0131867 4:2.25787 5:1.43 6:156.92 7:0.151796 8:0.98 9:6.0 10:5.16233 11:0.636753 
1.0 1:5.06677 2:0.393958 3:0.005115 4:2.19495 5:1.43 6:157.07 7:0.155203 8:0.98 9:6.0 10:5.303 11:0.887415 
1.0 1:5.07903 2:0.407458 3:0.0268937 4:2.09343 5:1.43 6:157.45 7:0.166022 8:0.98 9:6.0 10:5.512 11:1.47768 
1.0 1:5.09903 2:0.434982 3:0.155961 4:2.14459 5:1.57 6:158.07 7:0.189209 8:0.98 9:6.0 10:5.77967 11:2.17533 
1.0 1:5.09452 2:0.432364 3:0.180153 4:2.19559 5:1.57 6:157.93 7:0.186939 8:0.98 9:6.0 10:5.11033 11:-0.0201048 
1.0 1:5.09032 2:0.436031 3:0.182986 4:2.15502 5:1.57 6:157.8 7:0.190123 8:0.98 9:6.0 10:4.51333 11:-2.0843 
1.0 1:5.10419 2:0.419879 3:0.246654 4:2.21977 5:1.57 6:158.23 7:0.176298 8:1.22 9:11.0 10:4.683 11:-1.82047 
1.0 1:5.11129 2:0.409485 3:0.325531 4:2.2065 5:1.57 6:158.45 7:0.167678 8:0.98 9:6.0 10:4.48367 11:-1.70004 
1.0 1:5.11839 2:0.398322 3:0.432993 4:2.14716 5:1.36 6:158.67 7:0.158661 8:1.22 9:11.0 10:4.45667 11:-2.02104 
1.0 1:5.12161 2:0.39437 3:0.457696 4:2.15971 5:1.36 6:158.77 7:0.155527 8:0.98 9:6.0 10:4.53433 11:-1.15683 
1.0 1:5.1071 2:0.408176 3:0.414547 4:2.09599 5:1.44 6:158.32 7:0.166608 8:1.22 9:11.0 10:4.36667 11:-1.89069 
1.0 1:5.09129 2:0.436942 3:0.0986197 4:2.47415 5:1.85 6:157.83 7:0.190918 8:0.98 9:6.0 10:3.95367 11:-2.64851 
1.0 1:5.07548 2:0.460187 3:-0.034505 4:2.4635 5:1.85 6:157.34 7:0.211772 8:1.1 9:7.0 10:4.04267 11:-2.50142 
1.0 1:5.05161 2:0.496965 3:-0.231341 4:2.55606 5:1.98 6:156.6 7:0.246974 8:0.98 9:6.0 10:3.81067 11:-2.55521 
1.0 1:5.01774 2:0.529671 3:-0.238926 4:2.37003 5:1.98 6:155.55 7:0.280551 8:1.1 9:7.0 10:3.87267 11:-2.48245 
1.0 1:4.99677 2:0.55415 3:-0.257446 4:2.22153 5:1.98 6:154.9 7:0.307083 8:0.98 9:6.0 10:3.90867 11:-1.83542 
1.0 1:4.97161 2:0.578671 3:-0.236475 4:2.05108 5:1.98 6:154.12 7:0.334861 8:0.81 9:5.0 10:3.893 11:-1.39396 
1.0 1:4.93742 2:0.606954 3:-0.194534 4:1.9069 5:2.01 6:153.06 7:0.368393 8:0.74 9:4.0 10:3.78067 11:-1.41419 
1.0 1:4.91355 2:0.615649 3:-0.0994857 4:1.80687 5:2.01 6:152.32 7:0.379024 8:0.39 9:3.0 10:4.15867 11:-0.23814 
1.0 1:4.89 2:0.608764 3:-0.0080546 4:1.86063 5:2.01 6:151.59 7:0.370593 8:0.76 9:3.0 10:4.52067 11:0.518467 
1.0 1:4.90226 2:0.628701 3:0.0843787 4:1.95382 5:2.11 6:151.97 7:0.395265 8:0.76 9:3.0 10:5.86867 11:3.56639 
1.0 1:4.94387 2:0.721797 3:0.694748 4:3.47958 5:3.08 6:153.26 7:0.520991 8:0.97 9:5.0 10:6.836 11:7.20484 
0.8156837391715207 1:5.00065 2:0.850713 3:1.19171 4:4.58928 5:3.63 6:155.02 7:0.723713 8:2.11 9:3.0 10:7.40667 11:17.5394 
1.0 1:5.01581 2:0.858537 3:1.1212 4:4.35446 5:3.63 6:155.49 7:0.737085 8:3.08 9:4.0 10:5.50033 11:4.89406 
1.0 1:4.98806 2:0.869879 3:1.1502 4:4.29753 5:3.63 6:154.63 7:0.756689 8:3.63 9:5.0 10:4.068 11:-13.4608 
1.0 1:5.06419 2:0.957186 3:1.0499 4:3.57082 5:3.63 6:156.99 7:0.916205 8:3.63 9:5.0 10:7.054 11:19.8368 
1.0 1:5.0971 2:0.971618 3:0.930788 4:3.2577 5:3.63 6:158.01 7:0.944041 8:3.63 9:5.0 10:5.826 11:9.37888 
0.23406052663138044 1:5.14258 2:1.00982 3:0.81012 4:2.81401 5:3.63 6:159.42 7:1.01973 8:3.63 9:5.0 10:6.46067 11:12.5456 
1.0 1:5.19516 2:1.04816 3:0.684634 4:2.4413 5:3.63 6:161.05 7:1.09863 8:3.63 9:5.0 10:6.53433 11:13.2132 
0.913579800143926 1:5.27774 2:1.15014 3:0.706224 4:2.3945 5:3.88 6:163.61 7:1.32281 8:3.63 9:5.0 10:7.64633 11:23.9324 
0.9340601301275805 1:5.36258 2:1.25963 3:0.729232 4:2.35475 5:4.19 6:166.24 7:1.58666 8:3.63 9:5.0 10:7.962 11:26.0924 
1.0 1:5.43968 2:1.32941 3:0.634622 4:2.07383 5:4.19 6:168.63 7:1.76732 8:3.63 9:5.0 10:7.54733 11:18.621 
0.6172455895176782 1:5.52839 2:1.4208 3:0.585868 4:1.92903 5:4.28 6:171.38 7:2.01867 8:3.63 9:5.0 10:8.04033 11:21.3308 
1.0 1:5.61161 2:1.50372 3:0.530543 4:1.77963 5:4.32 6:173.96 7:2.26119 8:3.63 9:5.0 10:8.07133 11:20.444 
1.0 1:5.63935 2:1.51823 3:0.476426 4:1.68885 5:4.32 6:174.82 7:2.30502 8:3.63 9:5.0 10:6.64433 11:2.6126 
1.0 1:5.73226 2:1.58167 3:0.377986 4:1.54067 5:4.32 6:177.7 7:2.50166 8:3.63 9:5.0 10:7.99467 11:15.2842 
1.0 1:5.82806 2:1.60434 3:0.246047 4:1.4341 5:4.32 6:180.67 7:2.5739 8:3.63 9:5.0 10:7.469 11:10.6916 
1.0 1:5.94839 2:1.66569 3:0.155948 4:1.40082 5:4.61 6:184.4 7:2.77452 8:3.63 9:5.0 10:8.40567 11:18.7906 
1.0 1:6.01613 2:1.65294 3:0.0553081 4:1.4127 5:4.61 6:186.5 7:2.7322 8:3.63 9:5.0 10:6.57633 11:-1.68283 
1.0 1:6.12419 2:1.66739 3:-0.0700377 4:1.40296 5:4.61 6:189.85 7:2.78019 8:3.63 9:5.0 10:7.80333 11:9.36193 
1.0 1:6.21613 2:1.66481 3:-0.196448 4:1.43694 5:4.61 6:192.7 7:2.7716 8:3.63 9:5.0 10:7.39933 11:6.47453 
1.0 1:6.26129 2:1.63601 3:-0.253655 4:1.52483 5:4.61 6:194.1 7:2.67652 8:3.63 9:5.0 10:5.783 11:-12.7365 
0.7977837307896821 1:6.30258 2:1.59556 3:-0.274841 4:1.59945 5:4.61 6:195.38 7:2.5458 8:3.24 9:5.0 10:5.25 11:-16.8767 
0.3047153822833472 1:6.31903 2:1.57566 3:-0.271701 4:1.61937 5:4.61 6:195.89 7:2.4827 8:3.63 9:5.0 10:4.57733 11:-23.8101 
0.9836178343459397 1:6.32032 2:1.5737 3:-0.269609 4:1.61716 5:4.61 6:195.93 7:2.47652 8:3.24 9:5.0 10:3.88567 11:-25.783 
0.22589760321426916 1:6.34 2:1.5477 3:-0.255754 4:1.62347 5:4.61 6:196.54 7:2.39538 8:3.63 9:5.0 10:4.50433 11:-19.2925 
0.7258927174181988 1:6.3371 2:1.55218 3:-0.260956 4:1.62932 5:4.61 6:196.45 7:2.40926 8:3.24 9:5.0 10:3.84467 11:-20.7219 
0.4348396155751948 1:6.40452 2:1.49429 3:-0.310325 4:1.75545 5:4.61 6:198.54 7:2.23289 8:3.63 9:5.0 10:6.01833 11:1.59584 
1.0 1:6.48452 2:1.42319 3:-0.356979 4:1.89063 5:4.58 6:201.02 7:2.02548 8:3.24 9:5.0 10:6.28533 11:6.15507 
1.0 1:6.50226 2:1.39879 3:-0.342762 4:1.91062 5:4.58 6:201.57 7:1.9566 8:2.87 9:5.0 10:4.733 11:-9.51966 
1.0 1:6.53742 2:1.36554 3:-0.374954 4:2.03896 5:4.58 6:202.66 7:1.86469 8:2.99 9:4.0 10:5.598 11:-3.1522 
1.0 1:6.50323 2:1.39093 3:-0.324197 4:1.9089 5:4.58 6:201.6 7:1.93468 8:1.23 9:5.0 10:4.76567 11:-3.61052 
0.14695581239382374 1:6.48548 2:1.38749 3:-0.289471 4:1.91112 5:4.58 6:201.05 7:1.92512 8:2.99 9:4.0 10:6.22733 11:4.23166 
0.4606178918863407 1:6.43677 2:1.37422 3:-0.20785 4:1.93465 5:4.58 6:199.54 7:1.88849 8:1.23 9:5.0 10:5.881 11:0.731036 
1.0 1:6.40935 2:1.3983 3:-0.184279 4:1.84617 5:4.58 6:198.69 7:1.95525 8:2.99 9:4.0 10:4.679 11:-10.9106 
1.0 1:6.46452 2:1.34206 3:-0.190198 4:1.95794 5:4.58 6:200.4 7:1.80113 8:1.51 9:3.0 10:5.69933 11:-0.664852 
0.32249703928837514 1:6.39903 2:1.35345 3:-0.0719587 4:1.88795 5:4.58 6:198.37 7:1.83182 8:2.14 9:4.0 10:4.99 11:-4.4632 
1.0 1:6.39516 2:1.3548 3:-0.0640699 4:1.88012 5:4.58 6:198.25 7:1.83547 8:1.51 9:3.0 10:5.659 11:-0.315852 
0.5511364329888596 1:6.34548 2:1.374 3:0.0196758 4:1.80002 5:4.58 6:196.71 7:1.88787 8:1.56 9:5.0 10:4.86633 11:-3.54889 
1.0 1:6.27097 2:1.41558 3:0.0901386 4:1.72249 5:4.58 6:194.4 7:2.00386 8:1.23 9:3.0 10:4.139 11:-5.49754 
1.0 1:6.15387 2:1.43235 3:0.190781 4:1.76732 5:4.58 6:190.77 7:2.05164 8:1.33 9:3.0 10:3.92867 11:-6.24163 
1.0 1:6.02323 2:1.42986 3:0.278512 4:1.85261 5:4.58 6:186.72 7:2.0445 8:1.23 9:3.0 10:3.83233 11:-5.4034 
0.7439059666937237 1:5.9 2:1.44241 3:0.369793 4:1.96325 5:4.65 6:182.9 7:2.08056 8:1.33 9:3.0 10:3.63567 11:-5.82726 
1.0 1:5.76645 2:1.4108 3:0.460585 4:2.10391 5:4.65 6:178.76 7:1.99037 8:1.12 9:3.0 10:3.81433 11:-3.74284 
1.0 1:5.62065 2:1.37659 3:0.50972 4:2.25258 5:4.81 6:174.24 7:1.89501 8:1.33 9:3.0 10:3.52267 11:-5.13288 
1.0 1:5.52613 2:1.392 3:0.613583 4:2.3586 5:4.81 6:171.31 7:1.93767 8:1.23 9:3.0 10:3.61833 11:-3.89196 
1.0 1:5.40226 2:1.31971 3:0.714329 4:2.62399 5:4.81 6:167.47 7:1.74162 8:1.23 9:3.0 10:4.05567 11:-1.77407 
1.0 1:5.28645 2:1.27444 3:0.848716 4:3.00283 5:4.81 6:163.88 7:1.6242 8:1.12 9:3.0 10:3.75467 11:-2.19013 
1.0 1:5.13419 2:1.14577 3:0.717261 4:2.66656 5:4.21 6:159.16 7:1.31278 8:1.23 9:3.0 10:3.61567 11:-3.03173 
1.0 1:5.07161 2:1.10806 3:0.863196 4:3.07906 5:4.21 6:157.22 7:1.22779 8:1.12 9:3.0 10:4.52467 11:0.663258 
1.0 1:4.81484 2:1.31869 3:-1.16995 4:7.11507 5:7.55 6:149.26 7:1.73895 8:1.12 9:3.0 10:-0.251667 11:-15.0423 
1.0 1:4.57129 2:1.48359 3:-1.68689 4:6.5705 5:6.48 6:141.71 7:2.20104 8:1.12 9:3.0 10:-0.197333 11:-15.2847 
1.0 1:4.38032 2:1.6731 3:-1.53536 4:5.17361 5:6.48 6:135.79 7:2.79928 8:1.12 9:3.0 10:-0.179667 11:-12.7598 
0.9538113850584001 1:4.20645 2:1.83674 3:-1.33611 4:4.10306 5:6.48 6:130.4 7:3.37363 8:1.12 9:3.0 10:-0.157 11:-11.0809 
1.0 1:4.22194 2:1.84314 3:-1.34341 4:4.09444 5:6.48 6:130.88 7:3.39718 8:5.19 9:3.0 10:5.056 11:35.0938 
1.0 1:4.23516 2:1.84312 3:-1.36526 4:4.13419 5:6.48 6:131.29 7:3.39708 8:1.48 9:3.0 10:4.27533 11:7.9281 
0.022585681428670144 1:4.23355 2:1.84277 3:-1.36347 4:4.13239 5:6.48 6:131.24 7:3.39581 8:5.19 9:4.0 10:4.45733 11:20.6957 
1.0 1:4.26129 2:1.8453 3:-1.40243 4:4.19451 5:6.48 6:132.1 7:3.40513 8:5.19 9:4.0 10:4.635 11:20.8001 
1.0 1:4.20645 2:1.81226 3:-1.42654 4:4.28699 5:6.48 6:130.4 7:3.2843 8:5.19 9:4.0 10:4.23567 11:12.0897 
0.0198684744993802 1:4.15419 2:1.77051 3:-1.50352 4:4.43644 5:6.48 6:128.78 7:3.13471 8:5.19 9:4.0 10:4.95667 11:19.6116 
1.0 1:4.14323 2:1.761 3:-1.52286 4:4.47835 5:6.48 6:128.44 7:3.10114 8:5.19 9:4.0 10:5.29333 11:23.4955 
0.5506722491645648 1:4.13032 2:1.73917 3:-1.60931 4:4.57323 5:6.07 6:128.04 7:3.02471 8:5.19 9:4.0 10:5.38767 11:20.8231 
0.4176636041887412 1:4.11258 2:1.72144 3:-1.65877 4:4.65352 5:5.94 6:127.49 7:2.96335 8:5.19 9:4.0 10:5.35933 11:17.9438 
0.8142390671023492 1:4.13355 2:1.73425 3:-1.6452 4:4.60944 5:5.94 6:128.14 7:3.00763 8:5.19 9:4.0 10:5.272 11:15.3108 
1.0 1:4.11129 2:1.71461 3:-1.69307 4:4.69764 5:5.88 6:127.45 7:2.93989 8:5.19 9:4.0 10:5.077 11:10.7638 
0.14333052292879234 1:4.11 2:1.71379 3:-1.69412 4:4.70074 5:5.88 6:127.41 7:2.93707 8:5.19 9:4.0 10:4.954 11:8.25962 
1.0 1:4.08226 2:1.69099 3:-1.74711 4:4.80274 5:5.59 6:126.55 7:2.85944 8:5.19 9:4.0 10:4.85033 11:6.07531 
1.0 1:4.07452 2:1.68677 3:-1.7503 4:4.81532 5:5.59 6:126.31 7:2.84518 8:5.19 9:4.0 10:4.70333 11:3.29551 
1.0 1:4.08323 2:1.6892 3:-1.75723 4:4.8248 5:5.59 6:126.58 7:2.85339 8:5.19 9:4.0 10:4.53 11:0.48125 
0.8641104349217841 1:4.09387 2:1.691 3:-1.77021 4:4.84954 5:5.59 6:126.91 7:2.85947 8:5.19 9:4.0 10:4.39367 11:-1.44398 
0.8328315142683398 1:4.10097 2:1.69144 3:-1.78154 4:4.87473 5:5.59 6:127.13 7:2.86098 8:5.19 9:4.0 10:4.17967 11:-4.36823 
0.8408022766078291 1:4.10968 2:1.69112 3:-1.79821 4:4.91592 5:5.59 6:127.4 7:2.85989 8:5.19 9:4.0 10:4.04367 11:-5.81273 
1.0 1:4.10387 2:1.6915 3:-1.78659 4:4.88651 5:5.59 6:127.22 7:2.86117 8:5.19 9:4.0 10:3.785 11:-9.08177 
0.8337044378201798 1:4.10194 2:1.69195 3:-1.78185 4:4.87305 5:5.59 6:127.16 7:2.8627 8:5.19 9:4.0 10:3.56033 11:-11.6193 
0.47400916960376194 1:4.09194 2:1.69416 3:-1.75782 4:4.80558 5:5.59 6:126.85 7:2.87018 8:5.19 9:4.0 10:3.43633 11:-12.0121 
0.06060211991402982 1:4.03645 2:1.70463 3:-1.63291 4:4.46896 5:5.59 6:125.13 7:2.90577 8:5.19 9:4.0 10:3.132 11:-14.0488 
0.5738293851350331 1:4.01065 2:1.71374 3:-1.56771 4:4.28128 5:5.59 6:124.33 7:2.93689 8:4.84 9:6.0 10:2.88033 11:-14.8404 
1.0 1:3.95129 2:1.7177 3:-1.46259 4:4.03251 5:5.59 6:122.49 7:2.9505 8:5.19 9:4.0 10:2.95 11:-15.7008 
0.31398090383365856 1:4.04484 2:1.56776 3:-1.57359 4:4.78782 5:5.59 6:125.39 7:2.45788 8:4.84 9:6.0 10:2.9 11:-14.3887 
0.702944372024087 1:4.13 2:1.40386 3:-1.60034 4:5.47948 5:5.59 6:128.03 7:1.97081 8:4.43 9:5.0 10:2.64 11:-15.8448 
1.0 1:4.21161 2:1.21684 3:-1.41451 4:5.59732 5:5.59 6:130.56 7:1.4807 8:5.19 9:4.0 10:2.53 11:-19.5326 
1.0 1:4.28871 2:0.996951 3:-0.460498 4:1.94412 5:3.2 6:132.95 7:0.993912 8:1.14 9:5.0 10:2.217 11:-4.50757 
1.0 1:4.19581 2:1.04328 3:-0.382558 4:1.85992 5:3.28 6:130.07 7:1.08843 8:1.04 9:4.0 10:2.16233 11:-3.9669 
1.0 1:4.12355 2:1.10241 3:-0.328477 4:1.75503 5:3.4 6:127.83 7:1.21531 8:1.14 9:5.0 10:2.037 11:-4.34853 
1.0 1:4.04226 2:1.15836 3:-0.259772 4:1.67438 5:3.52 6:125.31 7:1.3418 8:1.04 9:4.0 10:1.90867 11:-3.98769 
1.0 1:3.95032 2:1.20509 3:-0.174775 4:1.62215 5:3.6 6:122.46 7:1.45224 8:1.14 9:5.0 10:1.84167 11:-4.24214 
1.0 1:3.8671 2:1.25739 3:-0.107289 4:1.56982 5:3.72 6:119.88 7:1.58102 8:1.04 9:4.0 10:1.71833 11:-3.88671 
1.0 1:3.7771 2:1.3058 3:-0.032481 4:1.54205 5:3.83 6:117.09 7:1.7051 8:0.37 9:4.0 10:1.58833 11:-1.38264 
1.0 1:3.66419 2:1.33414 3:0.0540047 4:1.5732 5:3.94 6:113.59 7:1.77992 8:0.06 9:3.0 10:1.468 11:-0.222446 
1.0 1:3.53935 2:1.34154 3:0.13123 4:1.62089 5:4.0 6:109.72 7:1.79973 8:0.1 9:2.0 10:1.407 11:-0.351748 
1.0 1:3.40839 2:1.34294 3:0.194056 4:1.68836 5:4.16 6:105.66 7:1.80348 9:2.0 10:1.24367 
1.0 1:3.27516 2:1.32402 3:0.250858 4:1.73432 5:4.09 6:101.53 7:1.75303 9:2.0 10:1.276 
1.0 1:3.14097 2:1.2995 3:0.298265 4:1.78373 5:4.11 6:97.37 7:1.68871 9:2.0 10:1.17767 
1.0 1:3.00516 2:1.26759 3:0.32849 4:1.81652 5:3.99 6:93.16 7:1.60677 8:0.03 9:1.0 10:1.085 11:-0.0927646 
1.0 1:2.87484 2:1.23639 3:0.370135 4:1.87528 5:3.94 6:89.12 7:1.52867 8:0.03 9:1.0 10:1.03833 11:-0.0876711 
1.0 1:2.74677 2:1.19788 3:0.406171 4:1.92366 5:3.84 6:85.15 7:1.43492 8:0.03 9:2.0 10:1.01267 11:-0.0805991 
1.0 1:2.62065 2:1.15565 3:0.432381 4:1.96142 5:3.74 6:81.24 7:1.33553 8:0.03 9:2.0 10:0.948333 11:-0.0778185 
1.0 1:2.5 2:1.10946 3:0.461187 4:1.99637 5:3.56 6:77.5 7:1.23089 8:0.03 9:2.0 10:0.954333 11:-0.0695797 
1.0 1:2.3829 2:1.0634 3:0.485329 4:2.03246 5:3.49 6:73.87 7:1.13081 8:0.03 9:2.0 10:0.889 11:-0.0676678 
1.0 1:2.26968 2:1.01283 3:0.49873 4:2.03616 5:3.29 6:70.36 7:1.02582 8:0.03 9:1.0 10:0.876333 11:-0.0623981 
1.0 1:2.1629 2:0.963851 3:0.519071 4:2.05229 5:3.18 6:67.05 7:0.929008 8:0.03 9:1.0 10:0.860667 11:-0.0569672 
1.0 1:2.05968 2:0.910503 3:0.520315 4:2.00567 5:2.93 6:63.85 7:0.829017 8:0.03 9:2.0 10:0.849667 11:-0.0522184 
1.0 1:1.96484 2:0.863238 3:0.54513 4:2.01126 5:2.72 6:60.91 7:0.745179 8:0.03 9:2.0 10:0.847 11:-0.04721 
1.0 1:1.87645 2:0.819897 3:0.58639 4:2.06199 5:2.63 6:58.17 7:0.67223 8:0.03 9:2.0 10:0.830667 11:-0.0435944 
1.0 1:1.78839 2:0.776274 3:0.601953 4:2.07017 5:2.52 6:55.44 7:0.602601 8:0.03 9:2.0 10:0.737667 11:-0.047644 
1.0 1:1.70645 2:0.736815 3:0.634793 4:2.12803 5:2.43 6:52.9 7:0.542897 8:0.03 9:2.0 10:0.721333 11:-0.0448394 
1.0 1:1.62581 2:0.696839 3:0.644619 4:2.14641 5:2.28 6:50.4 7:0.485585 8:0.03 9:2.0 10:0.658667 11:-0.045556 
1.0 1:1.55323 2:0.66088 3:0.691427 4:2.25283 5:2.19 6:48.15 7:0.436763 8:0.03 9:2.0 10:0.691667 11:-0.038009 
1.0 1:1.48258 2:0.622532 3:0.722011 4:2.33236 5:2.14 6:45.96 7:0.387546 8:0.03 9:2.0 10:0.663333 11:-0.035481 
1.0 1:1.41194 2:0.579065 3:0.693645 4:2.23973 5:1.93 6:43.77 7:0.335316 8:0.03 9:1.0 10:0.622 11:-0.0359968 
1.0 1:1.34903 2:0.546195 3:0.715992 4:2.30726 5:1.84 6:41.82 7:0.298329 8:0.03 9:1.0 10:0.605667 11:-0.0339423 
1.0 1:1.28935 2:0.512913 3:0.732286 4:2.36094 5:1.71 6:39.97 7:0.26308 8:0.03 9:2.0 10:0.600333 11:-0.0307564 
1.0 1:1.23387 2:0.48198 3:0.759771 4:2.45843 5:1.64 6:38.25 7:0.232305 8:0.03 9:2.0 10:0.593 11:-0.0279433 
1.0 1:1.18065 2:0.449169 3:0.765205 4:2.49773 5:1.53 6:36.6 7:0.201753 8:0.03 9:2.0 10:0.587 11:-0.0255019 
1.0 1:1.13806 2:0.411262 3:0.798282 4:2.58491 5:1.41 6:35.28 7:0.169136 8:0.2 9:2.0 10:0.801 11:-0.0240766 
1.0 1:1.09903 2:0.375751 3:0.833942 4:2.70171 5:1.33 6:34.07 7:0.141189 8:0.2 9:2.0 10:0.793667 11:-0.0116946 
1.0 1:1.06161 2:0.340138 3:0.835393 4:2.71401 5:1.21 6:32.91 7:0.115694 8:0.21 9:1.0 10:0.767667 11:-0.0363153 
1.0 1:1.02806 2:0.307467 3:0.834792 4:2.72638 5:1.1 6:31.87 7:0.0945361 8:0.21 9:1.0 10:0.771333 11:-0.0352529 
1.0 1:0.994839 2:0.280177 3:0.821745 4:2.70281 5:0.99 6:30.84 7:0.0784991 8:0.21 9:2.0 10:0.675 11:-0.0924095 
1.0 1:0.965161 2:0.256162 3:0.825805 4:2.7391 5:0.93 6:29.92 7:0.0656191 8:0.21 9:2.0 10:0.677 11:-0.0872857 
1.0 1:0.935806 2:0.233292 3:0.766163 4:2.57965 5:0.8 6:29.01 7:0.0544252 8:0.21 9:2.0 10:0.632333 11:-0.103373 
1.0 1:0.91129 2:0.219131 3:0.818019 4:2.79185 5:0.8 6:28.25 7:0.0480183 8:0.21 9:1.0 10:0.621333 11:-0.0988101 
1.0 1:0.885806 2:0.198121 3:0.720281 4:2.50118 5:0.7 6:27.46 7:0.0392518 8:0.21 9:1.0 10:0.624667 11:-0.0842083 
1.0 1:0.862581 2:0.182245 3:0.636178 4:2.25728 5:0.62 6:26.74 7:0.0332131 8:0.21 9:2.0 10:0.598 11:-0.0909076 
1.0 1:0.842258 2:0.171245 3:0.622053 4:2.22624 5:0.58 6:26.11 7:0.0293247 8:0.21 9:2.0 10:0.589667 11:-0.0876442 
1.0 1:0.823226 2:0.161522 3:0.614172 4:2.21863 5:0.56 6:25.52 7:0.0260892 8:0.21 9:2.0 10:0.580667 11:-0.0827826 
1.0 1:0.804839 2:0.151699 3:0.57799 4:2.12573 5:0.5 6:24.95 7:0.0230125 8:0.21 9:2.0 10:0.573 11:-0.0789714 
1.0 1:0.788387 2:0.145008 3:0.597952 4:2.20349 5:0.51 6:24.44 7:0.0210273 8:0.21 9:2.0 10:0.563 11:-0.0760919 
1.0 1:0.771613 2:0.136384 3:0.547111 4:2.08461 5:0.45 6:23.92 7:0.0186006 8:0.21 9:2.0 10:0.555333 11:-0.0734867 
1.0 1:0.757097 2:0.130695 3:0.577511 4:2.17202 5:0.43 6:23.47 7:0.0170813 8:0.21 9:2.0 10:0.556 11:-0.0652494 
1.0 1:0.742903 2:0.124958 3:0.596669 4:2.25869 5:0.42 6:23.03 7:0.0156146 8:0.21 9:2.0 10:0.546667 11:-0.06355 
1.0 1:0.728387 2:0.120141 3:0.569358 4:2.33889 5:0.43 6:22.58 7:0.014434 8:0.21 9:1.0 10:0.517333 11:-0.0756883 
1.0 1:0.714516 2:0.114829 3:0.538804 4:2.38325 5:0.42 6:22.15 7:0.0131856 8:0.21 9:1.0 10:0.517667 11:-0.0687884 
1.0 1:0.70129 2:0.107819 3:0.47634 4:2.26954 5:0.4 6:21.74 7:0.0116249 8:0.21 9:2.0 10:0.528333 11:-0.0534153 
1.0 1:0.688387 2:0.100767 3:0.352065 4:1.95286 5:0.32 6:21.34 7:0.010154 8:0.21 9:2.0 10:0.521667 11:-0.0524111 
1.0 1:0.67871 2:0.0991209 3:0.429532 4:2.08462 5:0.32 6:21.04 7:0.00982495 8:0.21 9:1.0 10:0.522333 11:-0.0478212 
1.0 1:0.669677 2:0.0976212 3:0.528839 4:2.26689 5:0.32 6:20.76 7:0.00952989 8:0.21 9:2.0 10:0.524667 11:-0.0426204 
1.0 1:0.662903 2:0.0984274 3:0.639084 4:2.39384 5:0.32 6:20.55 7:0.00968796 8:0.21 9:2.0 10:0.523667 11:-0.0385524 
1.0 1:0.655161 2:0.0975319 3:0.771902 4:2.65553 5:0.32 6:20.31 7:0.00951247 8:0.21 9:2.0 10:0.524667 11:-0.0347158 
1.0 1:0.648387 2:0.0973001 3:0.904939 4:2.9076 5:0.32 6:20.1 7:0.00946731 8:0.21 9:3.0 10:0.526333 11:-0.0314186 
1.0 1:0.642903 2:0.0984951 3:0.988923 4:3.01893 5:0.33 6:19.93 7:0.00970129 8:0.21 9:4.0 10:0.517 11:-0.0350141 
1.0 1:0.634194 2:0.100392 3:1.14027 4:3.20091 5:0.33 6:19.66 7:0.0100785 8:0.01 9:5.0 10:0.527667 11:-0.00110549 
1.0 1:0.63 2:0.101555 3:1.19903 4:3.27251 5:0.33 6:19.53 7:0.0103133 8:0.21 9:5.0 10:0.518 11:-0.0279584 
1.0 1:0.626129 2:0.102654 3:1.25229 4:3.33784 5:0.33 6:19.41 7:0.0105378 8:0.01 9:5.0 10:0.511 11:-0.00125851 
1.0 1:0.615484 2:0.0931965 3:1.38955 4:3.88773 5:0.32 6:19.08 7:0.00868559 8:0.01 9:5.0 10:0.511333 11:-0.00106968 
1.0 1:0.604839 2:0.0825781 3:1.47556 4:4.36903 5:0.3 6:18.75 7:0.00681914 8:0.01 9:5.0 10:0.502333 11:-0.00120517 
1.0 1:0.595161 2:0.0722436 3:1.55123 4:4.98131 5:0.3 6:18.45 7:0.00521914 8:0.01 9:5.0 10:0.502333 11:-0.00106411 
1.0 1:0.585161 2:0.0588711 3:1.16844 4:3.2935 5:0.21 6:18.14 7:0.00346581 8:0.01 9:5.0 10:0.495667 11:-0.00118199 
1.0 1:0.578387 2:0.053485 3:1.21238 4:3.5825 5:0.21 6:17.93 7:0.00286065 8:0.01 9:5.0 10:0.495667 11:-0.00105686 
1.0 1:0.571613 2:0.0464827 3:1.0517 4:2.95813 5:0.16 6:17.72 7:0.00216065 8:0.01 9:5.0 10:0.497333 11:-8.954E-4 
1.0 1:0.566129 2:0.04318 3:1.06707 4:3.19852 5:0.16 6:17.55 7:0.00186452 8:0.01 9:5.0 10:0.487667 11:-0.00107577 
1.0 1:0.56 2:0.0413924 3:0.825619 4:3.42836 5:0.19 6:17.36 7:0.00171333 8:0.01 9:5.0 10:0.457667 11:-0.00187349 
1.0 1:0.556129 2:0.0360257 3:0.615966 4:3.17844 5:0.16 6:17.24 7:0.00129785 8:0.07 9:5.0 10:0.528667 11:0.00254421 
1.0 1:0.553226 2:0.0324948 3:0.529722 4:3.41609 5:0.15 6:17.15 7:0.00105591 8:0.07 9:5.0 10:0.529 11:0.00433896 
1.0 1:0.550645 2:0.0292045 3:0.384255 4:3.68038 5:0.14 6:17.07 7:8.52903E-4 8:0.07 9:5.0 10:0.529333 11:0.00321215 
1.0 1:0.548387 2:0.0262166 3:0.167177 4:3.99289 5:0.13 6:17.0 7:6.87312E-4 8:0.07 9:4.0 10:0.529667 11:0.00263702 
1.0 1:0.546452 2:0.0236006 3:-0.123053 4:4.39721 5:0.12 6:16.94 7:5.56989E-4 8:0.07 9:4.0 10:0.53 11:0.00229297 
0.9346695655824514 1:0.544839 2:0.0214275 3:-0.4631 4:4.95084 5:0.11 6:16.89 7:4.5914E-4 8:0.07 9:5.0 10:0.530333 11:0.00206296 
0.6406100254008615 1:0.54129 2:0.0164807 3:-2.07111 4:7.44728 5:0.08 6:16.78 7:2.71613E-4 8:0.07 9:7.0 10:0.531667 11:0.00167737 
1.0 1:0.540968 2:0.0161977 3:-2.16778 4:7.74507 5:0.07 6:16.77 7:2.62366E-4 8:0.07 9:14.0 10:0.531667 11:0.00104605 
1.0 1:0.540645 2:0.0161112 3:-2.1478 4:7.73206 5:0.07 6:16.76 7:2.5957E-4 9:14.0 10:0.521667 
1.0 1:0.540323 2:0.0160175 3:-2.13105 4:7.73357 5:0.07 6:16.75 7:2.56559E-4 9:15.0 10:0.521667 
0.41803610677222675 1:0.539677 2:0.015808 3:-2.10791 4:7.78189 5:0.07 6:16.73 7:2.49892E-4 9:15.0 10:0.522 
0.8635326521700595 1:0.54129 2:0.0145469 3:-2.80294 4:11.7 5:0.07 6:16.78 7:2.11613E-4 8:0.01 9:15.0 10:0.513 11:-3.17872E-4 
1.0 1:0.541935 2:0.0135202 3:-3.23657 4:15.3222 5:0.07 6:16.8 7:1.82796E-4 8:0.07 9:16.0 10:0.514 11:-0.00197856 
1.0 1:0.542903 2:0.00782881 3:-0.548919 4:1.88042 5:0.02 6:16.83 7:6.12903E-5 8:0.01 9:14.0 10:0.511667 11:-2.42175E-4 
0.5635157563958388 1:0.542258 2:0.00804557 3:-0.423683 4:1.71479 5:0.02 6:16.81 7:6.47312E-5 8:0.01 9:13.0 10:0.511667 11:-2.18305E-4 
1.0 1:0.539677 2:0.00836017 3:0.05974 4:1.48088 5:0.02 6:16.73 7:6.98925E-5 8:0.01 9:9.0 10:0.511667 11:-1.47236E-4 
1.0 1:0.538387 2:0.00820438 3:0.300718 4:1.59562 5:0.02 6:16.69 7:6.73118E-5 8:0.01 9:9.0 10:0.511667 11:-1.20236E-4 
1.0 1:0.537742 2:0.00804557 3:0.423683 4:1.71479 5:0.02 6:16.67 7:6.47312E-5 8:0.01 9:10.0 10:0.511667 11:-1.08104E-4 
1.0 1:0.535161 2:0.00676805 3:0.924647 4:2.68733 5:0.02 6:16.59 7:4.58065E-5 8:0.01 9:14.0 10:0.511667 11:-6.62233E-5 
0.06665498235317645 1:0.534516 2:0.00623897 3:1.02185 4:2.99873 5:0.02 6:16.57 7:3.89247E-5 8:0.01 9:15.0 10:0.511667 11:-5.70619E-5 
1.0 1:0.53 2:0.0141421 3:-4.02525 4:20.77 5:0.08 6:16.43 7:2.0E-4 8:0.01 9:17.0 10:0.442 11:-0.00208167 
1.0 1:0.527419 2:0.0187914 3:-3.05086 4:11.4715 5:0.08 6:16.35 7:3.53118E-4 8:0.01 9:17.0 10:0.442 11:-0.00204377 
0.2833255005231047 1:0.526774 2:0.0186882 3:-3.00886 4:11.2912 5:0.08 6:16.33 7:3.49247E-4 8:0.06 9:17.0 10:0.502 11:4.95503E-4 
1.0 1:0.514194 2:0.0298635 3:-1.49857 4:3.39766 5:0.09 6:15.94 7:8.91828E-4 8:0.07 9:16.0 10:0.442 11:-0.00920152 
1.0 1:0.506129 2:0.03461 3:-0.907957 4:1.89264 5:0.08 6:15.69 7:0.00119785 8:0.07 9:15.0 10:0.432333 11:-0.00796457 
1.0 1:0.503548 2:0.035735 3:-0.745654 4:1.6168 5:0.08 6:15.61 7:0.00127699 8:0.07 9:14.0 10:0.432333 11:-0.00714359 
1.0 1:0.500968 2:0.0366383 3:-0.595221 4:1.4097 5:0.08 6:15.53 7:0.00134237 8:0.07 9:13.0 10:0.432333 11:-0.00644966 
1.0 1:0.498387 2:0.037336 3:-0.453469 4:1.25718 5:0.08 6:15.45 7:0.00139398 8:0.07 9:12.0 10:0.432333 11:-0.00584507 
1.0 1:0.490645 2:0.0382915 3:-0.0574219 4:1.04936 5:0.08 6:15.21 7:0.00146624 8:0.07 9:9.0 10:0.432333 11:-0.00438068 
0.6852399705753154 1:0.488065 2:0.0382465 3:0.0708821 4:1.05082 5:0.08 6:15.13 7:0.0014628 8:0.07 9:8.0 10:0.432333 11:-0.00397381 
1.0 1:0.482903 2:0.0376115 3:0.331553 4:1.15728 5:0.08 6:14.97 7:0.00141462 8:0.07 9:9.0 10:0.432333 11:-0.00324513 
0.09957525533534195 1:0.459677 2:0.024696 3:2.21077 4:5.96407 5:0.08 6:14.25 7:6.09892E-4 8:0.01 9:20.0 10:0.432667 11:-1.09234E-4 
0.041906941210026444 1:0.457419 2:0.0220556 3:2.72084 4:8.51646 5:0.08 6:14.18 7:4.86452E-4 8:0.07 9:20.0 10:0.435 11:-5.79614E-4 
1.0 1:0.450323 2:0.00179605 3:5.29465 4:29.0333 5:0.01 6:13.96 7:3.22581E-6 8:0.01 9:26.0 10:0.435 11:-3.44828E-6 
1.0 1:0.450323 2:0.00179605 3:5.29465 4:29.0333 5:0.01 6:13.96 7:3.22581E-6 9:26.0 10:0.434667 
1.0 1:0.45 2:2.82144E-16 3:1.0 4:1.0 6:13.95 7:7.96051E-32 9:28.0 10:0.435 
1.0 1:0.45 2:2.82144E-16 3:1.0 4:1.0 6:13.95 7:7.96051E-32 9:28.0 10:0.435 
1.0 1:0.45 2:2.82144E-16 3:1.0 4:1.0 6:13.95 7:7.96051E-32 9:28.0 10:0.435 
1.0 1:0.45 2:2.82144E-16 3:1.0 4:1.0 6:13.95 7:7.96051E-32 9:28.0 10:0.435 
1.0 1:0.45 2:2.82144E-16 3:1.0 4:1.0 6:13.95 7:7.96051E-32 9:28.0 10:0.435 
1.0 1:0.45 2:2.82144E-16 3:1.0 4:1.0 6:13.95 7:7.96051E-32 9:28.0 10:0.435 
1.0 1:0.45 2:2.82144E-16 3:1.0 4:1.0 6:13.95 7:7.96051E-32 9:28.0 10:0.435 
1.0 1:1.13419 2:0.299163 3:-1.4734 4:7.91821 5:1.67 6:35.16 7:0.0894985 8:0.01 9:2.0 10:0.834333 11:-0.00441879 
1.0 1:1.10871 2:0.285327 3:-1.67352 4:8.50551 5:1.63 6:34.37 7:0.0814116 8:1.63 9:3.0 10:0.88 11:-0.678902 
1.0 1:1.13677 2:0.203771 3:0.386223 4:2.24019 5:0.76 6:35.24 7:0.0415226 9:3.0 10:0.815667 
1.0 1:1.11226 2:0.187523 3:0.182491 4:1.60679 5:0.58 6:34.48 7:0.0351647 9:3.0 10:0.821667 
1.0 1:1.09323 2:0.181959 3:0.212954 4:1.55349 5:0.51 6:33.89 7:0.0331092 8:0.01 9:3.0 10:0.814333 11:-0.00384954 
1.0 1:1.07677 2:0.179135 3:0.304314 4:1.61777 5:0.5 6:33.38 7:0.0320892 8:0.01 9:3.0 10:0.814667 11:-0.00347895 
1.0 1:1.06032 2:0.175641 3:0.394337 4:1.7089 5:0.51 6:32.87 7:0.0308499 9:3.0 10:0.805 
1.0 1:1.04419 2:0.171051 3:0.487815 4:1.82709 5:0.51 6:32.37 7:0.0292585 8:0.01 9:3.0 10:0.805 11:-0.00306099 
1.0 1:1.02774 2:0.16508 3:0.568112 4:1.94967 5:0.52 6:31.86 7:0.0272514 9:3.0 10:0.794667 
1.0 1:1.01065 2:0.156757 3:0.606781 4:1.98508 5:0.49 6:31.33 7:0.0245729 9:3.0 10:0.786 
1.0 1:0.994839 2:0.149038 3:0.667349 4:2.08228 5:0.46 6:30.84 7:0.0222125 9:3.0 10:0.787 
1.0 1:0.98 2:0.141374 3:0.7411 4:2.22895 5:0.44 6:30.38 7:0.0199867 9:3.0 10:0.787667 
1.0 1:0.965484 2:0.133488 3:0.807567 4:2.3917 5:0.43 6:29.93 7:0.0178189 9:3.0 10:0.778333 
1.0 1:0.951613 2:0.125009 3:0.870202 4:2.56465 5:0.41 6:29.5 7:0.0156273 9:3.0 10:0.779 
1.0 1:0.938065 2:0.116288 3:0.911934 4:2.71713 5:0.41 6:29.08 7:0.0135228 9:3.0 10:0.769333 
1.0 1:0.924839 2:0.106015 3:0.889002 4:2.63817 5:0.38 6:28.67 7:0.0112391 9:3.0 10:0.770333 
1.0 1:0.912581 2:0.0958112 3:0.820111 4:2.32989 5:0.31 6:28.29 7:0.00917978 9:3.0 10:0.772667 
1.0 1:0.901935 2:0.0901635 3:0.848179 4:2.44435 5:0.3 6:27.96 7:0.00812946 9:3.0 10:0.753667 
1.0 1:0.892258 2:0.0852725 3:0.910153 4:2.68261 5:0.29 6:27.66 7:0.0072714 9:3.0 10:0.754 
1.0 1:0.882903 2:0.0797159 3:0.959466 4:2.91828 5:0.28 6:27.37 7:0.00635462 9:3.0 10:0.754333 
1.0 1:0.873871 2:0.0734247 3:0.975665 4:3.08458 5:0.27 6:27.09 7:0.00539118 9:3.0 10:0.754667 
1.0 1:0.865161 2:0.0662757 3:0.910602 4:2.97156 5:0.24 6:26.82 7:0.00439247 9:3.0 10:0.755667 
1.0 1:0.857419 2:0.0601092 3:0.850567 4:2.87026 5:0.21 6:26.58 7:0.00361312 9:3.0 10:0.756667 
1.0 1:0.85129 2:0.0545125 3:0.856122 4:2.9638 5:0.19 6:26.39 7:0.00297161 8:0.02 9:3.0 10:0.777333 11:-6.58361E-4 
0.3843718707963729 1:0.800968 2:0.0168037 3:0.745407 4:2.40126 5:0.06 6:24.83 7:2.82366E-4 8:0.02 9:8.0 10:0.752 11:-8.36775E-4 
1.0 1:0.797419 2:0.0148251 3:0.765173 4:2.46338 5:0.05 6:24.72 7:2.19785E-4 8:0.02 9:8.0 10:0.752333 11:-6.32053E-4 
0.4932939312944992 1:0.793548 2:0.013552 3:0.394315 4:2.32603 5:0.05 6:24.6 7:1.83656E-4 8:0.02 9:8.0 10:0.742667 11:-0.00108497 
1.0 1:0.752581 2:0.0129016 3:0.738554 4:2.33215 5:0.04 6:23.33 7:1.66452E-4 9:8.0 10:0.714 
0.29746758536874257 1:0.75 2:0.0109545 3:0.773301 4:2.2963 5:0.03 6:23.25 7:1.2E-4 9:10.0 10:0.714333 
0.030660779828873466 1:0.746129 2:0.00803219 3:1.19494 4:3.8231 5:0.03 6:23.13 7:6.45161E-5 9:14.0 10:0.714333 
0.10759966168016148 1:0.713226 2:0.0195597 3:-2.09248 4:12.0165 5:0.11 6:22.11 7:3.82581E-4 9:22.0 10:0.605333 
0.1641616803055308 1:0.712258 2:0.0189226 3:-2.25108 4:13.096 5:0.11 6:22.08 7:3.58065E-4 8:0.08 9:23.0 10:0.685333 11:-4.29669E-4 
0.07544802957682073 1:0.709677 2:0.0204098 3:-2.06013 4:9.8805 5:0.11 6:22.0 7:4.16559E-4 8:0.03 9:23.0 10:0.635333 11:-0.00341899 
1.0 1:0.632581 2:0.0473264 3:0.754802 4:1.99856 5:0.12 6:19.61 7:0.00223978 8:0.08 9:7.0 10:0.566333 11:-0.00464419 
0.3296634109421113 1:0.556774 2:0.0337033 3:-0.401097 4:1.8233 5:0.11 6:17.26 7:0.00113591 8:0.02 9:9.0 10:0.470333 11:-0.00281671 
1.0 1:0.550323 2:0.0373706 3:-0.337314 4:1.94184 5:0.13 6:17.06 7:0.00139656 8:0.02 9:9.0 10:0.450667 11:-0.00354656 
1.0 1:0.547419 2:0.038468 3:-0.224872 4:1.82127 5:0.13 6:16.97 7:0.00147978 8:0.02 9:8.0 10:0.470667 11:-0.00219813 
1.0 1:0.54 2:0.0425049 3:-0.158849 4:1.89083 5:0.14 6:16.74 7:0.00180667 8:0.02 9:6.0 10:0.440667 11:-0.00342364 
1.0 1:0.536452 2:0.0436309 3:-0.0643242 4:1.84462 5:0.14 6:16.63 7:0.00190366 8:0.02 9:5.0 10:0.450667 11:-0.00248805 
1.0 1:0.532581 2:0.044942 3:0.00685199 4:1.85302 5:0.14 6:16.51 7:0.00201978 8:0.02 9:4.0 10:0.440667 11:-0.00272262 
1.0 1:0.528387 2:0.046411 3:0.0555217 4:1.90676 5:0.15 6:16.38 7:0.00215398 8:0.02 9:3.0 10:0.43 11:-0.00313148 
1.0 1:0.523871 2:0.0460201 3:0.118334 4:1.92577 5:0.15 6:16.24 7:0.00211785 8:0.02 9:3.0 10:0.44 11:-0.00224035 
1.0 1:0.519355 2:0.0451616 3:0.173058 4:1.94437 5:0.15 6:16.1 7:0.00203957 8:0.02 9:3.0 10:0.44 11:-0.00189561 
1.0 1:0.514194 2:0.044779 3:0.14413 4:1.97403 5:0.16 6:15.94 7:0.00200516 8:0.02 9:3.0 10:0.42 11:-0.00291174 
1.0 1:0.485806 2:0.0416953 3:-0.0572969 4:2.02518 5:0.15 6:15.06 7:0.00173849 8:0.02 9:3.0 10:0.381667 11:-0.00390784 
1.0 1:0.461935 2:0.0329059 3:0.333951 4:2.18371 5:0.13 6:14.32 7:0.0010828 8:0.11 9:5.0 10:0.474333 11:0.0045551 
1.0 1:0.462903 2:0.0335851 3:0.275061 4:2.03169 5:0.13 6:14.35 7:0.00112796 8:0.11 9:5.0 10:0.484333 11:0.00742513 
1.0 1:0.463871 2:0.0339291 3:0.197054 4:1.93665 5:0.13 6:14.38 7:0.00115118 8:0.11 9:5.0 10:0.454333 11:-0.00331138 
1.0 1:0.464194 2:0.0340367 3:0.169696 4:1.90688 5:0.13 6:14.39 7:0.00115849 8:0.11 9:5.0 10:0.445 11:-0.00563322 
1.0 1:0.464516 2:0.0339449 3:0.144507 4:1.92039 5:0.13 6:14.4 7:0.00115226 8:0.11 9:5.0 10:0.444667 11:-0.00454363 
1.0 1:0.464839 2:0.0337511 3:0.128154 4:1.95092 5:0.13 6:14.41 7:0.00113914 8:0.11 9:5.0 10:0.445 11:-0.00337906 
1.0 1:0.464194 2:0.0341345 3:0.160986 4:1.89177 5:0.13 6:14.39 7:0.00116516 8:0.11 9:5.0 10:0.425667 11:-0.00895853 
1.0 1:0.465161 2:0.033553 3:0.117315 4:1.97028 5:0.13 6:14.42 7:0.00112581 8:0.13 9:6.0 10:0.445333 11:-0.00142816 
1.0 1:0.465161 2:0.033553 3:0.117315 4:1.97028 5:0.13 6:14.42 7:0.00112581 8:0.11 9:5.0 10:0.426 11:-0.00697083 
1.0 1:0.465806 2:0.0328404 3:0.13808 4:2.0222 5:0.13 6:14.44 7:0.00107849 8:0.13 9:6.0 10:0.426667 11:-0.00887707 
1.0 1:0.467097 2:0.030897 3:0.346015 4:1.81943 5:0.11 6:14.48 7:9.54624E-4 8:0.11 9:5.0 10:0.425667 11:-0.00677765 
1.0 1:0.467419 2:0.030547 3:0.362877 4:1.8344 5:0.11 6:14.49 7:9.33118E-4 8:0.07 9:4.0 10:0.425667 11:-0.00394695 
1.0 1:0.455161 2:0.0577276 3:-1.61486 4:5.32681 5:0.24 6:14.11 7:0.00333247 8:0.08 9:5.0 10:0.275 11:-0.034457 
1.0 1:0.449677 2:0.0657512 3:-1.47853 4:4.35531 5:0.25 6:13.94 7:0.00432323 8:0.07 9:4.0 10:0.262333 11:-0.0290073 
1.0 1:0.44 2:0.0749667 3:-1.49592 4:4.18281 5:0.28 6:13.64 7:0.00562 8:0.08 9:5.0 10:0.215667 11:-0.0413159 
1.0 1:0.433871 2:0.0831335 3:-1.34343 4:3.48324 5:0.28 6:13.45 7:0.00691118 8:0.07 9:4.0 10:0.225333 11:-0.031305 
1.0 1:0.136452 2:0.0255014 3:0.343394 4:1.73124 5:0.08 6:4.23 7:6.50323E-4 9:3.0 10:0.104 
0.5801426893771944 1:0.12129 2:0.0207753 3:0.414956 4:1.88665 5:0.07 6:3.76 7:4.31613E-4 8:0.01 9:4.0 10:0.0946667 11:-2.6571E-4 
1.0 1:0.119355 2:0.0198218 3:0.482166 4:1.9538 5:0.06 6:3.7 7:3.92903E-4 8:0.01 9:4.0 10:0.095 11:-2.50669E-4 
1.0 1:0.117419 2:0.0196584 3:0.554358 4:2.14916 5:0.06 6:3.64 7:3.86452E-4 8:0.01 9:4.0 10:0.085 11:-5.30148E-4 
1.0 1:0.116452 2:0.0187169 3:0.621478 4:2.41315 5:0.06 6:3.61 7:3.50323E-4 8:0.03 9:5.0 10:0.115 11:0.00117209 
1.0 1:0.115161 2:0.0176769 3:0.727485 4:2.76975 5:0.06 6:3.57 7:3.12473E-4 8:0.02 9:4.0 10:0.105 11:3.27948E-4 
1.0 1:0.113548 2:0.016643 3:0.831738 4:3.15663 5:0.06 6:3.52 7:2.76989E-4 8:0.03 9:4.0 10:0.095 11:-6.89147E-4 
0.9720495014890878 1:0.111935 2:0.0153665 3:0.902497 4:3.59051 5:0.06 6:3.47 7:2.36129E-4 8:0.03 9:4.0 10:0.0953333 11:-6.98498E-4 
0.6703902036793378 1:0.105484 2:0.0102758 3:0.0553735 4:1.88909 5:0.03 6:3.27 7:1.05591E-4 8:0.03 9:4.0 10:0.096 11:-1.02412E-4 
1.0 1:0.104194 2:0.00958269 3:0.233204 4:2.15737 5:0.03 6:3.23 7:9.1828E-5 8:0.03 9:5.0 10:0.096 11:-9.78334E-5 
0.10567231342894456 1:0.100323 2:0.00948116 3:0.174501 4:2.65411 5:0.04 6:3.11 7:8.98925E-5 8:0.03 9:6.0 10:0.0863333 11:-5.9119E-4 
1.0 1:0.0964516 2:0.0105035 3:0.0472857 4:2.42817 5:0.04 6:2.99 7:1.10323E-4 8:0.03 9:6.0 10:0.0763333 11:-0.00103359 
0.8367302412892751 1:0.0983871 2:0.0235367 3:1.13186 4:3.5714 5:0.08 6:3.05 7:5.53978E-4 8:0.08 9:6.0 10:0.146667 11:0.0145943 
1.0 1:0.118065 2:0.112351 3:4.93698 4:26.5491 5:0.64 6:3.66 7:0.0126228 8:0.56 9:6.0 10:0.706667 11:1.02277 
0.5450346028373966 1:0.135484 2:0.12863 3:3.39322 4:14.522 5:0.64 6:4.2 7:0.0165456 8:0.64 9:6.0 10:0.347 11:0.276157 
0.6711178316178638 1:0.150968 2:0.13838 3:2.61947 4:9.93497 5:0.64 6:4.68 7:0.019149 8:0.64 9:6.0 10:0.336333 11:0.217516 
1.0 1:0.158387 2:0.142223 3:2.33396 4:8.49927 5:0.64 6:4.91 7:0.0202273 8:0.64 9:6.0 10:0.336667 11:0.200403 
1.0 1:0.173871 2:0.148159 3:1.87355 4:6.50663 5:0.64 6:5.39 7:0.0219512 8:0.64 9:6.0 10:0.337 11:0.172656 
0.7395121385467975 1:0.213226 2:0.154712 3:1.08402 4:4.1631 5:0.64 6:6.61 7:0.0239359 8:0.64 9:6.0 10:0.336667 11:0.112956 
0.015420576634808555 1:0.220968 2:0.154862 3:0.960121 4:3.94195 5:0.64 6:6.85 7:0.0239824 8:0.64 9:7.0 10:0.336667 11:0.103123 
0.05767261328340618 1:0.268387 2:0.143738 3:0.415621 4:3.99221 5:0.64 6:8.32 7:0.0206606 8:0.64 9:10.0 10:0.327333 11:0.0382941 
1.0 1:0.392258 2:0.300774 3:4.16851 4:21.3225 5:1.82 6:12.16 7:0.0904647 8:1.22 9:10.0 10:1.88767 11:5.66476 
0.8642456735406404 1:0.463871 2:0.449167 3:3.32924 4:12.9372 5:2.14 6:14.38 7:0.201751 8:0.4 9:10.0 10:2.285 11:2.26862 
0.5874010660413392 1:0.535806 2:0.561698 3:2.66067 4:8.4637 5:2.23 6:16.61 7:0.315505 8:1.56 9:10.0 10:2.375 11:8.13808 
0.5425983503936334 1:0.607097 2:0.645147 3:2.19085 4:6.00047 5:2.05 6:18.82 7:0.416215 8:1.96 9:11.0 10:2.33633 11:8.74661 
0.15461110176561474 1:0.656774 2:0.709424 3:1.8545 4:4.53612 5:2.05 6:20.36 7:0.503283 8:2.05 9:12.0 10:2.237 11:7.37289 
0.7013934338653097 1:0.72129 2:0.772493 3:1.56517 4:3.52409 5:2.06 6:22.36 7:0.596745 8:2.05 9:12.0 10:2.37833 11:7.37728 
0.9964351191600075 1:0.809355 2:0.807201 3:1.20652 4:2.59276 5:2.06 6:25.09 7:0.651573 8:2.05 9:12.0 10:1.39867 11:0.0911813 
1.0 1:0.910968 2:0.934392 3:1.24922 4:3.14921 5:3.16 6:28.24 7:0.873089 8:2.05 9:12.0 10:3.47867 11:12.6742 
1.0 1:1.00935 2:1.02814 3:1.12576 4:2.81442 5:3.16 6:31.29 7:1.05707 8:2.05 9:12.0 10:3.37867 11:12.444 
1.0 1:1.11452 2:1.12001 3:1.01019 4:2.53968 5:3.27 6:34.55 7:1.25443 8:2.08 9:12.0 10:3.58867 11:11.9402 
1.0 1:1.21935 2:1.19471 3:0.874648 4:2.23054 5:3.27 6:37.8 7:1.42734 8:2.08 9:12.0 10:3.57867 11:10.6082 
0.8784628483013764 1:1.32194 2:1.25185 3:0.731872 4:1.94938 5:3.27 6:40.98 7:1.56712 8:2.08 9:12.0 10:3.50867 11:8.95642 
0.5379776999548612 1:1.42194 2:1.2939 3:0.590067 4:1.72142 5:3.27 6:44.08 7:1.67419 8:2.08 9:12.0 10:3.42867 11:7.49346 
0.43416410177341175 1:1.52774 2:1.33591 3:0.46302 4:1.5645 5:3.29 6:47.36 7:1.78465 8:2.08 9:12.0 10:3.60867 11:7.87088 
0.6137332984267387 1:1.6429 2:1.38315 3:0.357247 4:1.48188 5:3.58 6:50.93 7:1.91309 8:2.08 9:12.0 10:3.89867 11:9.09688 
1.0 1:1.75226 2:1.41044 3:0.236472 4:1.39866 5:3.58 6:54.32 7:1.98935 8:2.08 9:12.0 10:3.71867 11:7.2463 
1.0 1:1.85839 2:1.42435 3:0.112618 4:1.34702 5:3.58 6:57.61 7:2.02876 8:2.08 9:13.0 10:3.61867 11:5.69518 
1.0 1:1.9671 2:1.43317 3:-0.00785974 4:1.33343 5:3.58 6:60.98 7:2.05398 8:2.08 9:12.0 10:3.699 11:5.62081 
1.0 1:2.07677 2:1.43381 3:-0.128176 4:1.35479 5:3.58 6:64.38 7:2.05581 8:2.08 9:11.0 10:3.71867 11:5.31472 
1.0 1:2.19226 2:1.43343 3:-0.242201 4:1.41521 5:3.59 6:67.96 7:2.05473 8:2.08 9:12.0 10:3.909 11:5.99009 
1.0 1:2.3029 2:1.41718 3:-0.366466 4:1.50863 5:3.59 6:71.39 7:2.00841 8:2.08 9:11.0 10:3.749 11:4.50911 
1.0 1:2.41839 2:1.39677 3:-0.4884 4:1.64379 5:3.59 6:74.97 7:1.95097 8:2.08 9:10.0 10:3.899 11:4.80259 
1.0 1:2.52613 2:1.35861 3:-0.623529 4:1.83095 5:3.59 6:78.31 7:1.84582 8:2.08 9:9.0 10:3.659 11:2.93023 
1.0 1:2.62935 2:1.30676 3:-0.765945 4:2.08379 5:3.59 6:81.51 7:1.70763 8:2.08 9:8.0 10:3.519 11:1.52829 
1.0 1:2.7329 2:1.24417 3:-0.914704 4:2.41047 5:3.59 6:84.72 7:1.54796 8:2.08 9:7.0 10:3.529 11:1.37668 
1.0 1:2.83839 2:1.17007 3:-1.06816 4:2.82042 5:3.59 6:87.99 7:1.36906 8:2.08 9:6.0 10:3.589 11:1.64096 
0.3981812363015026 1:3.23677 2:0.699015 3:-1.20127 4:3.04003 5:2.51 6:100.34 7:0.488623 8:0.47 9:3.0 10:3.447 11:0.0776383 
0.6369239823422429 1:3.2929 2:0.655791 3:-1.41568 4:3.76329 5:2.51 6:102.08 7:0.430061 8:2.08 9:5.0 10:3.55367 11:0.953012 
1.0 1:3.34129 2:0.634312 3:-1.64728 4:4.57206 5:2.51 6:103.58 7:0.402352 8:0.29 9:3.0 10:3.71067 11:0.265152 
0.6686962516804716 1:3.38839 2:0.614449 3:-1.89861 4:5.55642 5:2.51 6:105.04 7:0.377547 8:2.08 9:5.0 10:3.76133 11:2.0345 
1.0 1:3.43194 2:0.58633 3:-2.22359 4:7.0159 5:2.51 6:106.39 7:0.343783 8:0.33 9:5.0 10:3.635 11:0.145088 
0.8007200166204637 1:3.48032 2:0.546049 3:-2.67351 4:9.48905 5:2.51 6:107.89 7:0.29817 8:2.08 9:6.0 10:3.67033 11:0.867976 
1.0 1:3.52645 2:0.510089 3:-3.21538 4:12.8807 5:2.51 6:109.32 7:0.26019 8:0.38 9:6.0 10:3.75267 11:0.221001 
1.0 1:3.59 2:0.433051 3:-4.23759 4:22.1907 5:2.58 6:111.29 7:0.187533 8:2.08 9:6.0 10:3.943 11:2.0962 
1.0 1:3.73903 2:0.149049 3:-0.153989 4:1.92587 5:0.53 6:115.91 7:0.0222157 8:0.38 9:6.0 10:3.70933 11:0.0413371 
0.02159132936833925 1:3.74774 2:0.149749 3:-0.277681 4:1.95665 5:0.53 6:116.18 7:0.0224247 8:0.38 9:6.0 10:3.75967 11:0.0900946 
0.20636510266665428 1:3.77 2:0.173032 3:0.265838 4:3.29386 5:0.79 6:116.87 7:0.02994 8:0.45 9:6.0 10:3.58567 11:-0.223061 
1.0 1:4.00161 2:0.233011 3:0.42143 4:2.70228 5:0.96 6:124.05 7:0.054294 8:0.49 9:6.0 10:3.39333 11:-0.842418 
1.0 1:3.99387 2:0.243676 3:0.282906 4:2.64507 5:0.96 6:123.81 7:0.0593778 8:0.49 9:6.0 10:3.43 11:-0.695349 
1.0 1:3.97968 2:0.261489 3:0.107837 4:2.59811 5:1.02 6:123.37 7:0.0683766 8:0.49 9:6.0 10:3.334 11:-0.733868 
1.0 1:3.96548 2:0.283688 3:-0.139495 4:2.71353 5:1.14 6:122.93 7:0.0804789 8:0.49 9:6.0 10:3.20833 11:-0.844154 
1.0 1:3.93871 2:0.321805 3:-0.455754 4:3.08289 5:1.36 6:122.1 7:0.103558 8:0.49 9:6.0 10:2.98867 11:-1.08796 
1.0 1:3.90742 2:0.365823 3:-0.677905 4:3.25846 5:1.51 6:121.13 7:0.133826 8:0.49 9:6.0 10:2.84233 11:-1.21753 
1.0 1:3.87484 2:0.414663 3:-0.836219 4:3.29735 5:1.66 6:120.12 7:0.171946 8:0.49 9:6.0 10:2.69033 11:-1.31568 
1.0 1:3.83677 2:0.464402 3:-0.879454 4:3.12444 5:1.77 6:118.94 7:0.215669 8:0.49 9:6.0 10:2.58333 11:-1.34785 
1.0 1:3.79548 2:0.521209 3:-0.926359 4:3.03509 5:1.96 6:117.66 7:0.271659 8:0.49 9:6.0 10:2.37833 11:-1.49186 
1.0 1:3.73806 2:0.565623 3:-0.867784 4:2.7905 5:2.01 6:115.88 7:0.319929 8:0.49 9:6.0 10:2.33967 11:-1.42636 
1.0 1:3.68774 2:0.616888 3:-0.80633 4:2.54623 5:2.13 6:114.32 7:0.380551 8:0.49 9:6.0 10:2.22633 11:-1.44982 
1.0 1:3.64129 2:0.667312 3:-0.749316 4:2.31917 5:2.21 6:112.88 7:0.445305 8:0.49 9:6.0 10:2.14467 11:-1.43803 
1.0 1:3.60645 2:0.688755 3:-0.619391 4:2.03097 5:2.21 6:111.8 7:0.474384 8:0.49 9:6.0 10:2.54967 11:-0.700669 
1.0 1:3.60903 2:0.690079 3:-0.624304 4:2.02683 5:2.21 6:111.88 7:0.476209 8:1.72 9:10.0 10:3.85833 11:4.753 
1.0 1:3.63645 2:0.720303 3:-0.515543 4:2.03397 5:2.53 6:112.73 7:0.518837 8:1.72 9:5.0 10:4.668 11:8.95942 
1.0 1:3.68645 2:0.793581 3:-0.13433 4:2.45943 5:3.24 6:114.28 7:0.62977 8:1.72 9:6.0 10:5.378 11:11.5897 
1.0 1:3.73774 2:0.860417 3:0.0557703 4:2.50181 5:3.28 6:115.87 7:0.740318 8:2.53 9:5.0 10:5.41433 11:15.3979 
1.0 1:3.80484 2:0.962264 3:0.359288 4:2.82702 5:3.88 6:117.95 7:0.925952 8:3.24 9:6.0 10:6.017 11:22.7035 
1.0 1:3.85258 2:1.00741 3:0.32129 4:2.53452 5:3.88 6:119.43 7:1.01488 8:3.28 9:5.0 10:5.33533 11:14.1806 
0.9846939679316424 1:3.92065 2:1.08851 3:0.382154 4:2.42154 5:3.88 6:121.54 7:1.18486 8:3.88 9:6.0 10:6.01433 11:21.5828 
0.348509618689172 1:3.96323 2:1.11991 3:0.311342 4:2.20611 5:3.88 6:122.86 7:1.25421 8:3.88 9:6.0 10:5.249 11:11.7358 
1.0 1:4.00968 2:1.16048 3:0.265073 4:2.02145 5:3.88 6:124.3 7:1.34671 8:3.88 9:6.0 10:5.52667 11:12.6843 
1.0 1:4.03871 2:1.17909 3:0.211968 4:1.90746 5:3.88 6:125.2 7:1.39026 8:3.88 9:6.0 10:5.05133 11:6.92339 
0.8200883746006183 1:4.04516 2:1.18202 3:0.197139 4:1.88616 5:3.88 6:125.4 7:1.39717 8:3.88 9:6.0 10:4.51067 11:-0.357988 
1.0 1:4.06129 2:1.18943 3:0.160999 4:1.83527 5:3.88 6:125.9 7:1.41474 8:3.88 9:6.0 10:4.616 11:1.74681 
1.0 1:4.07613 2:1.19321 3:0.124393 4:1.80606 5:3.88 6:126.36 7:1.42376 8:3.88 9:6.0 10:4.236 11:-2.26989 
1.0 1:4.14097 2:1.20117 3:-0.030807 4:1.75378 5:3.88 6:128.37 7:1.44282 8:3.88 9:6.0 10:4.74267 11:4.59948 
0.5488190903317434 1:4.17774 2:1.19898 3:-0.117086 4:1.77416 5:3.88 6:129.51 7:1.43754 8:3.88 9:6.0 10:4.54133 11:2.31375 
1.0 1:4.21839 2:1.19869 3:-0.210765 4:1.79818 5:3.88 6:130.77 7:1.43687 8:3.88 9:6.0 10:4.70467 11:3.3965 
1.0 1:4.26129 2:1.19444 3:-0.310226 4:1.85745 5:3.88 6:132.1 7:1.42668 8:3.88 9:6.0 10:4.67867 11:2.88867 
1.0 1:4.30032 2:1.18305 3:-0.403434 4:1.96487 5:3.88 6:133.31 7:1.3996 8:3.88 9:6.0 10:4.446 11:-0.399569 
1.0 1:4.33484 2:1.1629 3:-0.479909 4:2.12052 5:3.88 6:134.38 7:1.35233 8:3.88 9:6.0 10:4.091 11:-4.94624 
1.0 1:4.37806 2:1.13505 3:-0.573395 4:2.34423 5:3.88 6:135.72 7:1.28833 8:3.88 9:6.0 10:4.216 11:-3.43035 
1.0 1:4.42355 2:1.09818 3:-0.662794 4:2.63664 5:3.88 6:137.13 7:1.206 8:3.88 9:6.0 10:4.13967 11:-3.68635 
0.8734769160936695 1:4.46839 2:1.05335 3:-0.736086 4:2.99028 5:3.88 6:138.52 7:1.10954 8:3.88 9:6.0 10:4.016 11:-5.05863 
1.0 1:4.51806 2:0.99298 3:-0.777739 4:3.41958 5:3.88 6:140.06 7:0.986009 8:3.88 9:6.0 10:3.97767 11:-5.32118 
1.0 1:4.56613 2:0.924221 3:-0.762036 4:3.87484 5:3.88 6:141.55 7:0.854185 8:3.47 9:5.0 10:3.88167 11:-5.4851 
1.0 1:4.61484 2:0.839432 3:-0.590905 4:4.15652 5:3.88 6:143.06 7:0.704646 8:3.88 9:6.0 10:3.78433 11:-7.02432 
1.0 1:4.67774 2:0.722826 3:-0.0403533 4:3.71609 5:3.47 6:145.01 7:0.522478 8:3.47 9:5.0 10:4.13067 11:-2.22799 
1.0 1:4.71871 2:0.636683 3:0.740604 4:2.67407 5:2.29 6:146.28 7:0.405365 8:2.16 9:4.0 10:3.817 11:-2.87377 
1.0 1:4.72129 2:0.633786 3:0.753556 4:2.68832 5:2.29 6:146.36 7:0.401685 8:1.35 9:3.0 10:3.91 11:-1.38373 
1.0 1:4.69581 2:0.646275 3:0.785788 4:2.65334 5:2.29 6:145.57 7:0.417672 8:0.64 9:4.0 10:3.82633 11:-0.678662 
1.0 1:4.64645 2:0.640419 3:0.9261 4:2.96884 5:2.29 6:144.04 7:0.410137 8:0.68 9:3.0 10:3.795 11:-0.730778 
1.0 1:4.5929 2:0.631692 3:1.06682 4:3.38611 5:2.29 6:142.38 7:0.399035 8:0.36 9:3.0 10:3.685 11:-0.444599 
1.0 1:4.51452 2:0.580746 3:1.01897 4:3.58166 5:2.43 6:139.95 7:0.337266 8:0.68 9:3.0 10:3.53767 11:-1.09652 
1.0 1:4.45871 2:0.568869 3:1.13822 4:4.12875 5:2.43 6:138.22 7:0.323612 8:0.36 9:3.0 10:3.535 11:-0.508166 
1.0 1:4.37839 2:0.492809 3:0.738421 4:3.11406 5:2.01 6:135.73 7:0.242861 8:0.36 9:3.0 10:3.48033 11:-0.513632 
0.9302117270706938 1:4.32419 2:0.469686 3:0.770224 4:3.45273 5:2.01 6:134.05 7:0.220605 8:0.36 9:3.0 10:3.521 11:-0.406848 
1.0 1:4.25903 2:0.413516 3:0.298399 4:2.16236 5:1.55 6:132.03 7:0.170996 8:0.36 9:3.0 10:3.47667 11:-0.408387 
1.0 1:4.21484 2:0.381575 3:0.17831 4:1.76437 5:1.21 6:130.66 7:0.145599 8:0.45 9:5.0 10:3.67467 11:-0.219517 
1.0 1:4.18161 2:0.386334 3:0.265353 4:1.84607 5:1.23 6:129.63 7:0.149254 8:0.36 9:3.0 10:3.47533 11:-0.351142 
1.0 1:4.14774 2:0.390809 3:0.349105 4:1.95505 5:1.27 6:128.58 7:0.152731 8:0.36 9:3.0 10:3.43133 11:-0.393033 
1.0 1:4.11323 2:0.382085 3:0.452149 4:2.09907 5:1.27 6:127.51 7:0.145989 8:0.36 9:3.0 10:3.53767 11:-0.239799 
1.0 1:4.08581 2:0.378698 3:0.588199 4:2.28297 5:1.27 6:126.66 7:0.143412 8:0.45 9:5.0 10:3.57433 11:-0.208284 
1.0 1:4.06677 2:0.378765 3:0.70911 4:2.4143 5:1.27 6:126.07 7:0.143463 8:0.36 9:3.0 10:3.63367 11:-0.0888604 
1.0 1:4.04613 2:0.378001 3:0.83902 4:2.60027 5:1.27 6:125.43 7:0.142885 8:0.41 9:2.0 10:3.60167 11:-0.127223 
1.0 1:4.02548 2:0.372647 3:0.99308 4:2.91566 5:1.27 6:124.79 7:0.138866 8:0.36 9:2.0 10:3.648 11:-0.0458739 
0.04635538477520863 1:3.80839 2:0.123399 3:0.404072 4:2.32866 5:0.48 6:118.06 7:0.0152273 8:0.26 9:6.0 10:3.73833 11:0.0148863 
1.0 1:3.83806 2:0.0950936 3:0.665675 4:2.00971 5:0.3 6:118.98 7:0.0090428 8:0.26 9:6.0 10:3.64533 11:-0.0808226 
0.7054642017212333 1:3.85032 2:0.0932553 3:0.454514 4:1.77969 5:0.29 6:119.36 7:0.00869656 8:0.26 9:6.0 10:3.78467 11:0.0514255 
0.6322550313491321 1:4.02839 2:0.298765 3:0.714596 4:2.0219 5:0.88 6:124.88 7:0.0892606 8:0.88 9:12.0 10:4.29867 11:0.555339 
0.5047962305408158 1:4.09452 2:0.320352 3:0.203451 4:1.39969 5:0.88 6:126.93 7:0.102626 8:0.88 9:12.0 10:4.30167 11:0.432406 
0.06114819871706369 1:4.12161 2:0.334206 3:0.136314 4:1.4332 5:0.97 6:127.77 7:0.111694 8:0.88 9:12.0 10:4.55967 11:1.10341 
0.4074949900543774 1:4.16935 2:0.401837 3:0.784915 4:3.63541 5:1.67 6:129.25 7:0.161473 8:0.86 9:11.0 10:5.24733 11:2.84316 
0.416061456830946 1:4.19806 2:0.439988 3:0.796691 4:3.21276 5:1.67 6:130.14 7:0.193589 8:0.88 9:12.0 10:5.03233 11:2.19203 
0.14239938099638638 1:4.25903 2:0.467043 3:0.527365 4:2.50019 5:1.67 6:132.03 7:0.218129 8:0.86 9:11.0 10:4.806 11:0.931325 
0.4336344876705842 1:4.29581 2:0.468065 3:0.407282 4:2.34301 5:1.67 6:133.17 7:0.219085 8:0.88 9:12.0 10:4.73533 11:0.724113 
0.48502723397005826 1:4.33387 2:0.469338 3:0.292071 4:2.22058 5:1.67 6:134.35 7:0.220278 8:0.88 9:12.0 10:4.78967 11:0.803725 
0.4273820660978094 1:4.36968 2:0.47818 3:0.171072 4:2.09868 5:1.67 6:135.46 7:0.228657 8:0.88 9:12.0 10:4.89367 11:1.02747 
1.0 1:4.40645 2:0.475945 3:0.0538891 4:2.07478 5:1.67 6:136.6 7:0.226524 8:0.86 9:11.0 10:4.806 11:0.698212 
0.8596041806797294 1:4.4529 2:0.476985 3:-0.00981772 4:2.06854 5:1.67 6:138.04 7:0.227515 8:0.88 9:12.0 10:5.03533 11:1.20676 
0.4219154399409632 1:4.4871 2:0.461932 3:-0.0980458 4:2.16272 5:1.67 6:139.1 7:0.213381 8:0.86 9:11.0 10:4.674 11:0.199636 
1.0 1:4.54645 2:0.419282 3:-0.189339 4:2.5093 5:1.65 6:140.94 7:0.175797 8:0.86 9:11.0 10:4.50533 11:-0.354395 
1.0 1:4.57032 2:0.392016 3:-0.122757 4:2.67419 5:1.59 6:141.68 7:0.153677 8:0.8 9:8.0 10:4.35333 11:-0.650128 
0.44707241622339267 1:4.60129 2:0.366203 3:-0.0890103 4:2.826 5:1.59 6:142.64 7:0.134105 8:0.79 9:7.0 10:4.62967 11:0.0676089 
1.0 1:4.62419 2:0.342994 3:-0.0348628 4:3.08555 5:1.59 6:143.35 7:0.117645 8:0.8 9:8.0 10:4.49333 11:-0.179434 
1.0 1:4.64258 2:0.311137 3:0.384221 4:2.76227 5:1.34 6:143.92 7:0.0968065 8:0.79 9:7.0 10:4.235 11:-0.827686 
1.0 1:4.65387 2:0.294841 3:0.590901 4:2.77815 5:1.27 6:144.27 7:0.0869312 8:0.79 9:6.0 10:4.26267 11:-0.734416 
1.0 1:4.66226 2:0.282592 3:0.778209 4:2.78432 5:1.12 6:144.53 7:0.0798581 8:0.79 9:5.0 10:4.23767 11:-0.669848 
0.21975964992722374 1:4.66806 2:0.276036 3:0.852648 4:2.8543 5:1.02 6:144.71 7:0.0761961 8:0.79 9:4.0 10:4.304 11:-0.438905 
1.0 1:4.66613 2:0.278013 3:0.83374 4:2.82854 5:1.05 6:144.65 7:0.0772912 8:0.74 9:4.0 10:4.18933 11:-0.578769 
1.0 1:4.65742 2:0.286833 3:0.752814 4:2.73385 5:1.14 6:144.38 7:0.0822731 8:0.79 9:4.0 10:4.09667 11:-0.807626 
0.7758586718808768 1:4.64677 2:0.295041 3:0.725327 4:2.64278 5:1.14 6:144.05 7:0.0870492 8:0.79 9:4.0 10:4.11667 11:-0.693287 
1.0 1:4.63032 2:0.311496 3:0.584178 4:2.58677 5:1.3 6:143.54 7:0.0970299 8:0.79 9:4.0 10:3.94067 11:-1.03312 
1.0 1:4.61581 2:0.328743 3:0.428624 4:2.53157 5:1.36 6:143.09 7:0.108072 8:0.74 9:4.0 10:3.88233 11:-1.05005 
1.0 1:4.60032 2:0.348497 3:0.264222 4:2.49618 5:1.44 6:142.61 7:0.12145 8:0.79 9:4.0 10:3.801 11:-1.19562 
1.0 1:4.5771 2:0.380037 3:0.0121723 4:2.60775 5:1.64 6:141.89 7:0.144428 8:0.74 9:4.0 10:3.60367 11:-1.46094 
1.0 1:4.57194 2:0.383731 3:0.0316953 4:2.53049 5:1.64 6:141.73 7:0.147249 8:0.79 9:4.0 10:4.084 11:-0.30984 
1.0 1:4.58258 2:0.382805 3:-0.04704 4:2.55399 5:1.64 6:142.06 7:0.14654 8:0.96 9:4.0 10:4.56233 11:1.20718 
1.0 1:4.58774 2:0.381757 3:-0.0864976 4:2.58491 5:1.64 6:142.22 7:0.145738 8:0.96 9:4.0 10:4.43367 11:0.786264 
1.0 1:4.58581 2:0.381373 3:-0.0718892 4:2.59351 5:1.64 6:142.16 7:0.145445 8:0.96 9:4.0 10:4.45033 11:0.650966 
1.0 1:4.51548 2:0.328916 3:-0.188327 4:2.65919 5:1.41 6:139.98 7:0.108186 8:0.84 9:3.0 10:4.18567 11:-0.295054 
1.0 1:4.49258 2:0.323769 3:-0.0782178 4:2.71015 5:1.41 6:139.27 7:0.104826 8:0.84 9:4.0 10:4.058 11:-0.543947 
1.0 1:4.49935 2:0.333756 3:-0.00305323 4:2.65574 5:1.41 6:139.48 7:0.111393 8:0.84 9:3.0 10:4.906 11:1.63835 
1.0 1:4.51161 2:0.35596 3:0.222088 4:2.82855 5:1.55 6:139.86 7:0.126707 8:1.08 9:3.0 10:5.13267 11:2.96481 
1.0 1:4.62839 2:0.444463 3:0.729189 4:3.91965 5:2.09 6:143.48 7:0.197547 8:1.17 9:3.0 10:5.70567 11:3.94398 
0.2711900134691457 1:4.69258 2:0.378585 3:1.39504 4:4.74864 5:1.62 6:145.47 7:0.143326 8:1.17 9:3.0 10:4.199 11:-1.76387 
1.0 1:4.71258 2:0.38863 3:1.26696 4:4.04464 5:1.56 6:146.09 7:0.151033 8:1.17 9:3.0 10:5.061 11:2.35517 
1.0 1:4.72032 2:0.364769 3:1.37341 4:4.83834 5:1.56 6:146.33 7:0.133057 8:0.97 9:6.0 10:4.69933 11:0.278472 
0.4711290684582839 1:4.72935 2:0.363106 3:1.32254 4:4.78686 5:1.56 6:146.61 7:0.131846 8:1.17 9:6.0 10:4.65 11:0.180079 
1.0 1:4.73129 2:0.362001 3:1.32353 4:4.81273 5:1.56 6:146.67 7:0.131045 8:0.97 9:6.0 10:4.40433 11:-0.604821 
1.0 1:4.72 2:0.36936 3:1.29261 4:4.64831 5:1.56 6:146.32 7:0.136427 8:0.97 9:6.0 10:4.163 11:-1.31059 
0.2691456783998595 1:4.70161 2:0.38378 3:1.18157 4:4.3837 5:1.7 6:145.75 7:0.147287 8:0.97 9:6.0 10:3.98867 11:-1.72412 
0.0813901190228554 1:4.56065 2:0.441346 3:0.545973 4:3.66626 5:2.05 6:141.38 7:0.194786 8:0.97 9:6.0 10:3.66767 11:-1.63728 
1.0 1:4.46677 2:0.396681 3:0.0111538 4:2.10445 5:1.44 6:138.47 7:0.157356 8:0.88 9:6.0 10:3.81333 11:-0.761133 
1.0 1:4.44548 2:0.401429 3:0.125297 4:2.05628 5:1.44 6:137.81 7:0.161146 8:0.88 9:6.0 10:3.884 11:-0.468692 
1.0 1:4.41742 2:0.41468 3:0.192303 4:2.01673 5:1.44 6:136.94 7:0.17196 8:0.5 9:3.0 10:3.66533 11:-0.592775 
1.0 1:4.40258 2:0.425629 3:0.216199 4:1.92772 5:1.44 6:136.48 7:0.18116 8:0.88 9:6.0 10:3.735 11:-0.857871 
1.0 1:4.38548 2:0.438268 3:0.237525 4:1.85055 5:1.44 6:135.95 7:0.192079 8:0.88 9:6.0 10:3.673 11:-0.901222 
1.0 1:4.36484 2:0.451936 3:0.270436 4:1.79242 5:1.46 6:135.31 7:0.204246 8:0.88 9:6.0 10:3.62367 11:-0.976318 
1.0 1:4.35194 2:0.456876 3:0.329189 4:1.7646 5:1.46 6:134.91 7:0.208736 8:0.5 9:4.0 10:3.844 11:-0.181158 
1.0 1:4.33065 2:0.470694 3:0.357072 4:1.73123 5:1.51 6:134.25 7:0.221553 8:0.88 9:6.0 10:3.57733 11:-0.944429 
1.0 1:4.31871 2:0.476674 3:0.396932 4:1.70338 5:1.51 6:133.88 7:0.227218 8:0.5 9:4.0 10:3.76333 11:-0.268681 
1.0 1:4.2971 2:0.487922 3:0.445609 4:1.69272 5:1.51 6:133.21 7:0.238068 8:0.4 9:4.0 10:3.569 11:-0.377961 
1.0 1:4.26419 2:0.485172 3:0.581183 4:1.84802 5:1.51 6:132.19 7:0.235392 8:0.25 9:4.0 10:3.63567 11:-0.172314 
1.0 1:4.2129 2:0.463215 3:0.616867 4:1.8883 5:1.52 6:130.6 7:0.214568 8:0.25 9:4.0 10:3.47667 11:-0.266402 
1.0 1:4.17613 2:0.451964 3:0.759639 4:2.14444 5:1.52 6:129.46 7:0.204271 8:0.25 9:4.0 10:3.59333 11:-0.162479 
1.0 1:4.14097 2:0.427468 3:0.898522 4:2.46829 5:1.52 6:128.37 7:0.182729 8:0.27 9:4.0 10:3.738 11:-0.0152279 
1.0 1:4.09581 2:0.388388 3:0.910216 4:2.36789 5:1.21 6:126.97 7:0.150845 8:0.27 9:4.0 10:3.59867 11:-0.12065 
1.0 1:4.05935 2:0.368745 3:1.0487 4:2.74489 5:1.21 6:125.84 7:0.135973 8:0.27 9:4.0 10:3.54967 11:-0.167403 
1.0 1:4.02742 2:0.343579 3:1.21591 4:3.27109 5:1.21 6:124.85 7:0.118046 8:0.25 9:4.0 10:3.666 11:-0.0539314 
0.09068033359326474 1:3.94742 2:0.251541 3:1.78376 4:6.19374 5:1.16 6:122.37 7:0.0632731 8:0.25 9:4.0 10:3.74 11:0.0242846 
1.0 1:3.80194 2:0.455722 3:-4.80503 4:25.7234 5:2.64 6:117.86 7:0.207683 8:0.22 9:4.0 10:1.29233 11:-1.65367 
1.0 1:3.71903 2:0.644931 3:-3.37579 4:12.8584 5:2.8 6:115.29 7:0.415936 8:0.19 9:4.0 10:1.12767 11:-1.51781 
0.8840241046658323 1:3.62645 2:0.796005 3:-2.64706 4:8.24124 5:2.96 6:112.42 7:0.633624 8:0.22 9:4.0 10:0.965333 11:-1.5842 
0.7887197961848095 1:3.5271 2:0.924511 3:-2.17651 4:5.88828 5:3.1 6:109.34 7:0.854721 8:0.19 9:4.0 10:0.833 11:-1.27184 
1.0 1:3.42452 2:1.05875 3:-1.84762 4:4.56815 5:3.43 6:106.16 7:1.12095 8:0.22 9:4.0 10:0.500667 11:-1.52277 
1.0 1:3.32032 2:1.16594 3:-1.56879 4:3.59012 5:3.43 6:102.93 7:1.35942 8:0.19 9:4.0 10:0.522667 11:-1.17719 
1.0 1:3.21194 2:1.26952 3:-1.34389 4:2.92925 5:3.6 6:99.57 7:1.61167 8:0.22 9:4.0 10:0.334333 11:-1.33428 
1.0 1:3.10806 2:1.35142 3:-1.14052 4:2.40551 5:3.6 6:96.35 7:1.82634 8:0.15 9:3.0 10:0.417 11:-0.787095 
1.0 1:3.00355 2:1.40516 3:-0.955864 4:2.00251 5:3.6 6:93.11 7:1.97447 8:0.29 9:4.0 10:0.626 11:-1.18423 
1.0 1:2.90839 2:1.45406 3:-0.789618 4:1.69944 5:3.6 6:90.16 7:2.11429 8:0.29 9:4.0 10:0.639667 11:-1.04564 
1.0 1:2.81194 2:1.48426 3:-0.635813 4:1.47489 5:3.6 6:87.17 7:2.20303 8:0.29 9:4.0 10:0.795667 11:-0.835039 
1.0 1:2.7371 2:1.49488 3:-0.505354 4:1.33676 5:3.6 6:84.85 7:2.23466 8:0.49 9:3.0 10:1.283 11:-0.566466 
0.743578641265612 1:2.69065 2:1.48275 3:-0.435636 4:1.31014 5:3.6 6:83.41 7:2.19855 8:0.96 9:4.0 10:2.24867 11:1.81555 
0.10638903795996646 1:2.60871 2:1.44212 3:-0.3435 4:1.33039 5:3.6 6:80.87 7:2.0797 8:2.48 9:7.0 10:2.86467 11:6.61563 
0.3284354565661879 1:2.59097 2:1.43082 3:-0.329022 4:1.342 5:3.6 6:80.32 7:2.04724 8:2.48 9:7.0 10:3.08633 11:7.47743 
1.0 1:2.54548 2:1.39521 3:-0.314492 4:1.37368 5:3.6 6:78.91 7:1.9466 8:2.48 9:7.0 10:3.55 11:8.04536 
1.0 1:2.45774 2:1.31403 3:-0.346057 4:1.40002 5:3.56 6:76.19 7:1.72668 8:2.48 9:7.0 10:2.896 11:0.103997 
1.0 1:2.4371 2:1.29354 3:-0.361504 4:1.40146 5:3.48 6:75.55 7:1.67324 8:2.48 9:7.0 10:3.24867 11:2.22421 
0.25930877009809683 1:2.42742 2:1.283 3:-0.374021 4:1.39802 5:3.48 6:75.25 7:1.64609 8:2.48 9:7.0 10:3.50867 11:4.82068 
1.0 1:2.43161 2:1.28831 3:-0.363952 4:1.40543 5:3.61 6:75.38 7:1.65974 8:2.48 9:7.0 10:4.02267 11:7.96295 
1.0 1:2.52065 2:1.31123 3:-0.456702 4:1.50386 5:3.72 6:78.14 7:1.71933 8:2.48 9:7.0 10:4.138 11:8.21969 
0.8110624818723182 1:2.6171 2:1.32531 3:-0.560205 4:1.64556 5:3.79 6:81.13 7:1.75643 8:2.48 9:7.0 10:4.21333 11:7.74837 
1.0 1:2.72032 2:1.32782 3:-0.675074 4:1.83919 5:3.84 6:84.33 7:1.76311 8:2.48 9:7.0 10:4.268 11:7.2171 
1.0 1:2.83355 2:1.32235 3:-0.786836 4:2.09564 5:4.01 6:87.84 7:1.74862 8:2.48 9:7.0 10:4.449 11:7.65259 
1.0 1:2.95742 2:1.28848 3:-0.90575 4:2.41652 5:4.01 6:91.68 7:1.66017 8:2.39 9:6.0 10:4.44833 11:6.6216 
1.0 1:3.07839 2:1.23974 3:-1.04352 4:2.82425 5:4.01 6:95.43 7:1.53695 8:2.48 9:7.0 10:4.38467 11:5.46822 
1.0 1:3.21839 2:1.17769 3:-1.10332 4:3.22925 5:4.25 6:99.77 7:1.38696 8:2.39 9:8.0 10:4.78167 11:7.40582 
1.0 1:3.3529 2:1.09822 3:-1.16341 4:3.67655 5:4.05 6:103.94 7:1.20608 8:2.19 9:8.0 10:4.695 11:5.75758 
1.0 1:3.47806 2:1.00917 3:-1.2295 4:4.24465 5:4.03 6:107.82 7:1.01842 8:2.17 9:8.0 10:4.60433 11:4.23165 
1.0 1:3.60065 2:0.893413 3:-1.18761 4:4.62483 5:3.88 6:111.62 7:0.798186 8:2.76 9:10.0 10:4.53933 11:4.09049 
1.0 1:3.71742 2:0.757615 3:-0.855864 4:4.01485 5:3.39 6:115.24 7:0.57398 8:2.27 9:9.0 10:4.493 11:2.69212 
1.0 1:3.82613 2:0.649562 3:-0.206077 4:2.15766 5:2.43 6:118.61 7:0.421931 8:1.44 9:8.0 10:4.701 11:2.52455 
1.0 1:3.90677 2:0.617135 3:-0.0320702 4:1.77341 5:2.03 6:121.11 7:0.380856 8:1.44 9:8.0 10:4.772 11:2.7614 
1.0 1:3.96452 2:0.607327 3:-0.103423 4:1.76974 5:2.03 6:122.9 7:0.368846 8:1.44 9:8.0 10:4.63533 11:1.85863 
0.6791309174160238 1:4.03258 2:0.595214 3:-0.0778823 4:1.69322 5:1.96 6:125.01 7:0.35428 8:1.44 9:8.0 10:4.85033 11:2.49957 
1.0 1:4.1071 2:0.604859 3:0.033393 4:1.83668 5:2.27 6:127.32 7:0.365855 8:1.44 9:8.0 10:5.193 11:3.86402 
1.0 1:4.17548 2:0.619714 3:0.056271 4:1.93695 5:2.3 6:129.44 7:0.384046 8:1.44 9:8.0 10:5.21967 11:3.69956 
0.8515772506837507 1:4.23355 2:0.620245 3:-0.0222643 4:1.9313 5:2.3 6:131.24 7:0.384704 8:1.44 9:8.0 10:4.996 11:2.26806 
1.0 1:4.28548 2:0.617251 3:-0.129432 4:1.96091 5:2.3 6:132.85 7:0.380999 8:1.44 9:8.0 10:4.913 11:1.54091 
